{"learner":{"attributes":{"scikit_learn":"{\"_estimator_type\": \"classifier\"}"},"feature_names":["sender_bank","sender_lat","sender_lng","receiver_bank","receiver_lat","receiver_lng","amount","payment_rail","ewallet_provider","merchant","merchant_category","channel","device_type","device_brand","is_new_device","account_age_days","is_velocity_anomaly","is_geo_mismatch","is_off_hours","is_high_value_for_rail","is_suspicious_ip","is_risky_merchant","is_new_account","has_failed_attempts","is_device_mismatch","is_sim_swap","is_unusual_beneficiary","velocity_count","geo_distance_km","hour_sin","hour_cos","amount_to_age_ratio","dist_to_velocity_ratio","amount_to_distance_ratio"],"feature_types":["int","float","float","int","float","float","float","int","int","int","int","int","int","int","int","float","int","int","int","int","int","int","int","int","int","int","int","float","float","float","float","float","float","float"],"gradient_booster":{"model":{"cats":{"enc":[],"feature_segments":[],"sorted_idx":[]},"gbtree_model_param":{"num_parallel_tree":"1","num_trees":"300"},"iteration_indptr":[0,1,2,3,4,5,6,7,8,9,10,11,12,13,14,15,16,17,18,19,20,21,22,23,24,25,26,27,28,29,30,31,32,33,34,35,36,37,38,39,40,41,42,43,44,45,46,47,48,49,50,51,52,53,54,55,56,57,58,59,60,61,62,63,64,65,66,67,68,69,70,71,72,73,74,75,76,77,78,79,80,81,82,83,84,85,86,87,88,89,90,91,92,93,94,95,96,97,98,99,100,101,102,103,104,105,106,107,108,109,110,111,112,113,114,115,116,117,118,119,120,121,122,123,124,125,126,127,128,129,130,131,132,133,134,135,136,137,138,139,140,141,142,143,144,145,146,147,148,149,150,151,152,153,154,155,156,157,158,159,160,161,162,163,164,165,166,167,168,169,170,171,172,173,174,175,176,177,178,179,180,181,182,183,184,185,186,187,188,189,190,191,192,193,194,195,196,197,198,199,200,201,202,203,204,205,206,207,208,209,210,211,212,213,214,215,216,217,218,219,220,221,222,223,224,225,226,227,228,229,230,231,232,233,234,235,236,237,238,239,240,241,242,243,244,245,246,247,248,249,250,251,252,253,254,255,256,257,258,259,260,261,262,263,264,265,266,267,268,269,270,271,272,273,274,275,276,277,278,279,280,281,282,283,284,285,286,287,288,289,290,291,292,293,294,295,296,297,298,299,300],"tree_info":[0,0,0,0,0,0,0,0,0,0,0,0,0,0,0,0,0,0,0,0,0,0,0,0,0,0,0,0,0,0,0,0,0,0,0,0,0,0,0,0,0,0,0,0,0,0,0,0,0,0,0,0,0,0,0,0,0,0,0,0,0,0,0,0,0,0,0,0,0,0,0,0,0,0,0,0,0,0,0,0,0,0,0,0,0,0,0,0,0,0,0,0,0,0,0,0,0,0,0,0,0,0,0,0,0,0,0,0,0,0,0,0,0,0,0,0,0,0,0,0,0,0,0,0,0,0,0,0,0,0,0,0,0,0,0,0,0,0,0,0,0,0,0,0,0,0,0,0,0,0,0,0,0,0,0,0,0,0,0,0,0,0,0,0,0,0,0,0,0,0,0,0,0,0,0,0,0,0,0,0,0,0,0,0,0,0,0,0,0,0,0,0,0,0,0,0,0,0,0,0,0,0,0,0,0,0,0,0,0,0,0,0,0,0,0,0,0,0,0,0,0,0,0,0,0,0,0,0,0,0,0,0,0,0,0,0,0,0,0,0,0,0,0,0,0,0,0,0,0,0,0,0,0,0,0,0,0,0,0,0,0,0,0,0,0,0,0,0,0,0,0,0,0,0,0,0,0,0,0,0,0,0,0,0,0,0,0,0,0,0,0,0,0,0,0,0,0,0,0,0],"trees":[{"base_weights":[-0E0,-1.4496002E0,9.9998675E-2,-1.8165234E0,1.6792185E0,-1.9070609E0,9.995382E-2,-6.969634E-1,1.9741412E0,-1.9421543E0,9.987704E-2,-1.530557E0,9.965127E-2,1.6354089E0,9.993943E-2,-1.962563E0,9.978575E-2,-1.8154212E0,1.2769679E0,1.3071325E0,1.9783951E0,-9.88984E-2,-4.25264E-2,-9.6508734E-2,3.0322582E-2,-8.709677E-2,7.78481E-2,7.355242E-2,-4.2E-2,4.6666667E-2,9.922179E-2],"categories":[],"categories_nodes":[],"categories_segments":[],"categories_sizes":[],"default_left":[0,0,0,0,0,0,0,0,0,0,0,0,0,0,0,0,0,0,0,0,0,0,0,0,0,0,0,0,0,0,0],"id":0,"left_children":[1,3,-1,5,7,9,-1,11,13,15,-1,17,-1,19,-1,21,-1,23,25,27,29,-1,-1,-1,-1,-1,-1,-1,-1,-1,-1],"loss_changes":[5.2185497E5,1.1981266E5,0E0,3.2271719E4,7.6781797E3,1.2506469E4,0E0,2.7168635E3,7.809375E1,7.2715E3,0E0,7.416992E2,0E0,7.245801E1,0E0,1.5394688E3,0E0,2.3455225E2,7.519447E1,1.2213037E2,1.9335938E-1,0E0,0E0,0E0,0E0,0E0,0E0,0E0,0E0,0E0,0E0],"parents":[2147483647,0,0,1,1,3,3,4,4,5,5,7,7,8,8,9,9,11,11,13,13,15,15,17,17,18,18,19,19,20,20],"right_children":[2,4,-1,6,8,10,-1,12,14,16,-1,18,-1,20,-1,22,-1,24,26,28,30,-1,-1,-1,-1,-1,-1,-1,-1,-1,-1],"split_conditions":[3.460387E-1,1E0,9.9998675E-2,1E0,1E0,1E0,9.995382E-2,1E0,1E0,1E0,9.987704E-2,1E0,9.965127E-2,1E0,9.993943E-2,1E0,9.978575E-2,1E0,-2.3159316E-1,6E0,3E0,-9.88984E-2,-4.25264E-2,-9.6508734E-2,3.0322582E-2,-8.709677E-2,7.78481E-2,7.355242E-2,-4.2E-2,4.6666667E-2,9.922179E-2],"split_indices":[27,25,0,21,26,22,0,21,14,17,0,24,0,23,0,20,0,23,6,10,9,0,0,0,0,0,0,0,0,0,0],"split_type":[0,0,0,0,0,0,0,0,0,0,0,0,0,0,0,0,0,0,0,0,0,0,0,0,0,0,0,0,0,0,0],"sum_hessian":[1.8E5,1.043595E5,7.56405E4,9.3406E4,1.09535E4,9.12415E4,2.1645E3,1.20925E3,9.74425E3,9.042925E4,8.1225E2,9.235E2,2.8575E2,6.655E2,9.07875E3,8.99635E4,4.6575E2,8.3875E2,8.475E1,3.425E2,3.23E2,8.87335E4,1.23E3,8.01E2,3.775E1,6.75E0,7.8E1,3.185E2,2.4E1,2.75E0,3.2025E2],"tree_param":{"num_deleted":"0","num_feature":"34","num_nodes":"31","size_leaf_vector":"1"}},{"base_weights":[4.1406115E-6,-1.3805121E0,9.5240675E-2,-1.7299502E0,1.5992333E0,-1.8161706E0,9.5199876E-2,-6.636089E-1,1.8801471E0,-1.8495914E0,9.513002E-2,-1.4573278E0,9.492463E-2,1.556831E0,9.518441E-2,-1.8690279E0,9.504699E-2,-1.7286514E0,1.2148969E0,1.2519437E0,9.51723E-2,-9.418749E-2,-4.042038E-2,-9.190644E-2,2.885216E-2,-8.34439E-2,7.4117675E-2,7.025496E-2,-4.19746E-2],"categories":[],"categories_nodes":[],"categories_segments":[],"categories_sizes":[],"default_left":[0,0,0,0,0,0,0,0,0,0,0,0,0,0,0,0,0,0,0,0,0,0,0,0,0,0,0,0,0],"id":1,"left_children":[1,3,-1,5,7,9,-1,11,13,15,-1,17,-1,19,-1,21,-1,23,25,27,-1,-1,-1,-1,-1,-1,-1,-1,-1],"loss_changes":[4.7217694E5,1.0840395E5,0E0,2.9199062E4,6.94774E3,1.1316156E4,0E0,2.4584067E3,7.102344E1,6.5797188E3,0E0,6.709457E2,0E0,6.792175E1,0E0,1.3998438E3,0E0,2.1255957E2,6.851058E1,1.1548773E2,0E0,0E0,0E0,0E0,0E0,0E0,0E0,0E0,0E0],"parents":[2147483647,0,0,1,1,3,3,4,4,5,5,7,7,8,8,9,9,11,11,13,13,15,15,17,17,18,18,19,19],"right_children":[2,4,-1,6,8,10,-1,12,14,16,-1,18,-1,20,-1,22,-1,24,26,28,-1,-1,-1,-1,-1,-1,-1,-1,-1],"split_conditions":[3.460387E-1,1E0,9.5240675E-2,1E0,1E0,1E0,9.5199876E-2,1E0,1E0,1E0,9.513002E-2,1E0,9.492463E-2,1E0,9.518441E-2,1E0,9.504699E-2,1E0,-2.3159316E-1,6E0,9.51723E-2,-9.418749E-2,-4.042038E-2,-9.190644E-2,2.885216E-2,-8.34439E-2,7.4117675E-2,7.025496E-2,-4.19746E-2],"split_indices":[27,25,0,21,26,22,0,21,14,17,0,24,0,24,0,20,0,23,6,10,0,0,0,0,0,0,0,0,0],"split_type":[0,0,0,0,0,0,0,0,0,0,0,0,0,0,0,0,0,0,0,0,0,0,0,0,0,0,0,0,0],"sum_hessian":[1.7955889E5,1.0410718E5,7.545172E4,9.318025E4,1.092693E4,9.102115E4,2.1591028E3,1.20654E3,9.720389E3,9.021092E4,8.102277E2,9.214983E2,2.8504178E2,6.642706E2,9.056118E3,8.974633E4,4.6459253E2,8.3687915E2,8.4619156E1,3.5586163E2,3.08409E2,8.851688E4,1.2294441E3,7.991378E2,3.7741325E1,6.7372155E0,7.788194E1,3.3188583E2,2.3975782E1],"tree_param":{"num_deleted":"0","num_feature":"34","num_nodes":"29","size_leaf_vector":"1"}},{"base_weights":[1.0340277E-5,-1.3206351E0,9.113067E-2,-1.6549176E0,1.529921E0,-1.7373909E0,9.109292E-2,-6.3448954E-1,1.7987698E0,-1.7693597E0,9.10283E-2,-1.3932124E0,9.0838276E-2,1.486815E0,9.107646E-2,-1.7879523E0,9.0951495E-2,-1.6528647E0,1.1591182E0,1.1739434E0,1.8147147E0,-9.010876E-2,-3.845082E-2,-8.790204E-2,2.746445E-2,-8.019335E-2,7.076222E-2,3.4783356E-2,9.210815E-2,4.2150047E-2,9.102092E-2],"categories":[],"categories_nodes":[],"categories_segments":[],"categories_sizes":[],"default_left":[0,0,0,0,0,0,0,0,0,0,0,0,0,0,0,0,0,0,0,0,0,0,0,0,0,0,0,0,0,0,0],"id":2,"left_children":[1,3,-1,5,7,9,-1,11,13,15,-1,17,-1,19,-1,21,-1,23,25,27,29,-1,-1,-1,-1,-1,-1,-1,-1,-1,-1],"loss_changes":[4.2923866E5,9.8534516E4,0E0,2.6541172E4,6.316951E3,1.0286406E4,0E0,2.2342537E3,6.583984E1,5.98125E3,0E0,6.0956433E2,0E0,6.5777954E1,0E0,1.2904688E3,0E0,1.9381885E2,6.260077E1,1.0787967E2,2.4658203E-1,0E0,0E0,0E0,0E0,0E0,0E0,0E0,0E0,0E0,0E0],"parents":[2147483647,0,0,1,1,3,3,4,4,5,5,7,7,8,8,9,9,11,11,13,13,15,15,17,17,18,18,19,19,20,20],"right_children":[2,4,-1,6,8,10,-1,12,14,16,-1,18,-1,20,-1,22,-1,24,26,28,30,-1,-1,-1,-1,-1,-1,-1,-1,-1,-1],"split_conditions":[3.460387E-1,1E0,9.113067E-2,1E0,1E0,1E0,9.109292E-2,1E0,1E0,1E0,9.10283E-2,1E0,9.0838276E-2,1E0,9.107646E-2,1E0,9.0951495E-2,1E0,-2.3159316E-1,1E0,3E0,-9.010876E-2,-3.845082E-2,-8.790204E-2,2.746445E-2,-8.019335E-2,7.076222E-2,3.4783356E-2,9.210815E-2,4.2150047E-2,9.102092E-2],"split_indices":[27,25,0,21,26,22,0,21,14,17,0,24,0,23,0,20,0,23,6,21,9,0,0,0,0,0,0,0,0,0,0],"split_type":[0,0,0,0,0,0,0,0,0,0,0,0,0,0,0,0,0,0,0,0,0,0,0,0,0,0,0,0,0,0,0],"sum_hessian":[1.7832642E5,1.03402195E5,7.4924234E4,9.2549414E4,1.0852782E4,9.040539E4,2.1440215E3,1.1989648E3,9.653817E3,8.960081E4,8.0457666E2,9.159024E2,2.8306235E2,6.6093616E2,8.992881E3,8.913945E4,4.6135785E2,8.3164984E2,8.4252556E1,3.4056244E2,3.2037375E2,8.791157E4,1.2278867E3,7.9393286E2,3.7716976E1,6.7011576E0,7.75514E1,1.9968182E2,1.4088062E2,2.7378676E0,3.1763586E2],"tree_param":{"num_deleted":"0","num_feature":"34","num_nodes":"31","size_leaf_vector":"1"}},{"base_weights":[1.9323272E-5,-1.2682607E0,8.7548055E-2,-1.5892893E0,1.469314E0,-1.6684798E0,8.7512605E-2,-6.088327E-1,1.7276767E0,-1.6991768E0,8.745191E-2,-1.336559E0,8.7273456E-2,1.4240248E0,8.749519E-2,-1.7170302E0,8.737977E-2,-1.5860587E0,1.1085985E0,1.1316563E0,8.7901786E-2,-8.654497E-2,-3.6603313E-2,-8.438571E-2,2.6152803E-2,-7.728147E-2,6.772033E-2,3.2482203E-2,8.838458E-2],"categories":[],"categories_nodes":[],"categories_segments":[],"categories_sizes":[],"default_left":[0,0,0,0,0,0,0,0,0,0,0,0,0,0,0,0,0,0,0,0,0,0,0,0,0,0,0,0,0],"id":3,"left_children":[1,3,-1,5,7,9,-1,11,13,15,-1,17,-1,19,-1,21,-1,23,25,27,-1,-1,-1,-1,-1,-1,-1,-1,-1],"loss_changes":[3.9179003E5,8.992159E4,0E0,2.4221484E4,5.7672676E3,9.387641E3,0E0,2.0381925E3,6.1978516E1,5.4588594E3,0E0,5.5586194E2,0E0,6.215869E1,0E0,1.2036719E3,0E0,1.7767578E2,5.7344894E1,1.071001E2,0E0,0E0,0E0,0E0,0E0,0E0,0E0,0E0,0E0],"parents":[2147483647,0,0,1,1,3,3,4,4,5,5,7,7,8,8,9,9,11,11,13,13,15,15,17,17,18,18,19,19],"right_children":[2,4,-1,6,8,10,-1,12,14,16,-1,18,-1,20,-1,22,-1,24,26,28,-1,-1,-1,-1,-1,-1,-1,-1,-1],"split_conditions":[3.460387E-1,1E0,8.7548055E-2,1E0,1E0,1E0,8.7512605E-2,1E0,1E0,1E0,8.745191E-2,1E0,8.7273456E-2,1E0,8.749519E-2,1E0,8.737977E-2,1E0,-2.3159316E-1,1E0,8.7901786E-2,-8.654497E-2,-3.6603313E-2,-8.438571E-2,2.6152803E-2,-7.728147E-2,6.772033E-2,3.2482203E-2,8.838458E-2],"split_indices":[27,25,0,21,26,22,0,21,14,17,0,24,0,24,0,20,0,23,6,21,0,0,0,0,0,0,0,0,0],"split_type":[0,0,0,0,0,0,0,0,0,0,0,0,0,0,0,0,0,0,0,0,0,0,0,0,0,0,0,0,0],"sum_hessian":[1.764256E5,1.0231491E5,7.411068E4,9.157639E4,1.0738516E4,8.945563E4,2.1207605E3,1.1872767E3,9.551239E3,8.865977E4,7.958602E2,9.07268E2,2.8000873E2,6.5589124E2,8.895348E3,8.820341E4,4.5636823E2,8.235824E2,8.36856E1,3.5208762E2,3.038036E2,8.697792E4,1.2254795E3,7.8590314E2,3.7679245E1,6.645013E0,7.704059E1,2.0144568E2,1.5064194E2],"tree_param":{"num_deleted":"0","num_feature":"34","num_nodes":"29","size_leaf_vector":"1"}},{"base_weights":[2.9370394E-5,-1.2220834E0,8.440051E-2,-1.5314251E0,1.4158864E0,-1.6077167E0,8.436677E-2,-5.860416E-1,1.6650656E0,-1.6372904E0,8.4309034E-2,-1.2860888E0,8.413923E-2,1.367156E0,8.434837E-2,-1.654491E0,8.424038E-2,-1.5266863E0,1.0625132E0,1.0643147E0,1.6873065E0,-8.340621E-2,-3.4865674E-2,9.6284844E-2,-7.9327546E-2,-7.4657105E-2,6.494299E-2,6.0792923E-2,-4.39844E-2,3.81035E-2,8.464472E-2],"categories":[],"categories_nodes":[],"categories_segments":[],"categories_sizes":[],"default_left":[0,0,0,0,0,0,0,0,0,0,0,0,0,0,0,0,0,0,0,0,0,0,0,0,0,0,0,0,0,0,0],"id":4,"left_children":[1,3,-1,5,7,9,-1,11,13,15,-1,17,-1,19,-1,21,-1,23,25,27,29,-1,-1,-1,-1,-1,-1,-1,-1,-1,-1],"loss_changes":[3.588742E5,8.234622E4,0E0,2.218136E4,5.2844336E3,8.597156E3,0E0,1.865435E3,5.9152344E1,4.999375E3,0E0,5.0853333E2,0E0,6.12583E1,0E0,1.1340156E3,0E0,1.7131604E2,5.2646584E1,1.0032547E2,3.3544922E-1,0E0,0E0,0E0,0E0,0E0,0E0,0E0,0E0,0E0,0E0],"parents":[2147483647,0,0,1,1,3,3,4,4,5,5,7,7,8,8,9,9,11,11,13,13,15,15,17,17,18,18,19,19,20,20],"right_children":[2,4,-1,6,8,10,-1,12,14,16,-1,18,-1,20,-1,22,-1,24,26,28,30,-1,-1,-1,-1,-1,-1,-1,-1,-1,-1],"split_conditions":[3.460387E-1,1E0,8.440051E-2,1E0,1E0,1E0,8.436677E-2,1E0,1E0,1E0,8.4309034E-2,1E0,8.413923E-2,1E0,8.434837E-2,1E0,8.424038E-2,-1.6003247E0,-2.3159316E-1,6E0,3E0,-8.340621E-2,-3.4865674E-2,9.6284844E-2,-7.9327546E-2,-7.4657105E-2,6.494299E-2,6.0792923E-2,-4.39844E-2,3.81035E-2,8.464472E-2],"split_indices":[27,25,0,21,26,22,0,21,14,17,0,24,0,23,0,20,0,15,6,10,9,0,0,0,0,0,0,0,0,0,0],"split_type":[0,0,0,0,0,0,0,0,0,0,0,0,0,0,0,0,0,0,0,0,0,0,0,0,0,0,0,0,0,0,0],"sum_hessian":[1.7396362E5,1.00906625E5,7.3057E4,9.031612E4,1.0590506E4,8.8225484E4,2.0906328E3,1.1721334E3,9.418372E3,8.7440914E4,7.8457E2,8.960805E2,2.7605286E2,6.4934595E2,8.769026E3,8.699101E4,4.4990494E2,8.1313104E2,8.294948E1,3.3591595E2,3.1343002E2,8.576866E4,1.2223553E3,1.3328183E1,7.9980286E2,6.5716414E0,7.637784E1,3.1197098E2,2.3944971E1,2.706252E0,3.107238E2],"tree_param":{"num_deleted":"0","num_feature":"34","num_nodes":"31","size_leaf_vector":"1"}},{"base_weights":[4.0747775E-5,-1.1810758E0,8.1616156E-2,-1.480045E0,1.3684103E0,-1.553758E0,8.1583686E-2,-5.6530005E-1,1.6095579E0,-1.5823325E0,8.15281E-2,-1.2399373E0,8.136465E-2,1.3155077E0,8.156431E-2,-1.5989525E0,8.146201E-2,-1.4724331E0,1.0201977E0,1.0293665E0,8.2269184E-2,-8.086353E-2,-4.3466985E-2,-7.859773E-2,2.6735011E-2,-7.227864E-2,6.2390693E-2,2.8233403E-2,8.258509E-2],"categories":[],"categories_nodes":[],"categories_segments":[],"categories_sizes":[],"default_left":[0,0,0,0,0,0,0,0,0,0,0,0,0,0,0,0,0,0,0,0,0,0,0,0,0,0,0,0,0],"id":5,"left_children":[1,3,-1,5,7,9,-1,11,13,15,-1,17,-1,19,-1,21,-1,23,25,27,-1,-1,-1,-1,-1,-1,-1,-1,-1],"loss_changes":[3.297444E5,7.563866E4,0E0,2.0375016E4,4.8578887E3,7.897203E3,0E0,1.7114437E3,5.702539E1,4.5925156E3,0E0,4.6617346E2,0E0,5.8944336E1,0E0,1.1419688E3,0E0,1.6108643E2,4.842768E1,9.932712E1,0E0,0E0,0E0,0E0,0E0,0E0,0E0,0E0,0E0],"parents":[2147483647,0,0,1,1,3,3,4,4,5,5,7,7,8,8,9,9,11,11,13,13,15,15,17,17,18,18,19,19],"right_children":[2,4,-1,6,8,10,-1,12,14,16,-1,18,-1,20,-1,22,-1,24,26,28,-1,-1,-1,-1,-1,-1,-1,-1,-1],"split_conditions":[3.460387E-1,1E0,8.1616156E-2,1E0,1E0,1E0,8.1583686E-2,1E0,1E0,1E0,8.15281E-2,1E0,8.136465E-2,1E0,8.156431E-2,1E0,8.146201E-2,1E0,-2.3159316E-1,1E0,8.2269184E-2,-8.086353E-2,-4.3466985E-2,-7.859773E-2,2.6735011E-2,-7.227864E-2,6.2390693E-2,2.8233403E-2,8.258509E-2],"split_indices":[27,25,0,21,26,22,0,21,14,17,0,24,0,24,0,23,0,23,6,21,0,0,0,0,0,0,0,0,0],"split_type":[0,0,0,0,0,0,0,0,0,0,0,0,0,0,0,0,0,0,0,0,0,0,0,0,0,0,0,0,0],"sum_hessian":[1.7103472E5,9.923136E4,7.180336E4,8.881658E4,1.0414781E4,8.67618E4,2.0547866E3,1.1546384E3,9.260143E3,8.599066E4,7.711362E2,8.832932E2,2.713453E2,6.414131E2,8.6187295E3,8.5548445E4,4.4221402E2,8.0122156E2,8.207163E1,3.4568195E2,2.9573114E2,8.3452055E4,2.0963892E3,7.635773E2,3.764431E1,6.483608E0,7.558802E1,1.9899756E2,1.4668439E2],"tree_param":{"num_deleted":"0","num_feature":"34","num_nodes":"29","size_leaf_vector":"1"}},{"base_weights":[5.4926983E-5,-1.1443597E0,7.91382E-2,-1.4340254E0,1.3260415E0,-1.5054224E0,7.910661E-2,-5.468942E-1,1.5600213E0,-1.5330994E0,7.905253E-2,-1.1989168E0,7.8893594E-2,1.2680961E0,7.908621E-2,-1.5491979E0,7.898827E-2,-1.4243981E0,9.811101E-1,9.705417E-1,1.5866516E0,-7.815671E-2,-2.9724643E-2,9.271262E-2,-7.414153E-2,-7.011195E-2,6.0031176E-2,2.6123542E-2,8.018358E-2,3.4534898E-2,7.961308E-2],"categories":[],"categories_nodes":[],"categories_segments":[],"categories_sizes":[],"default_left":[0,0,0,0,0,0,0,0,0,0,0,0,0,0,0,0,0,0,0,0,0,0,0,0,0,0,0,0,0,0,0],"id":6,"left_children":[1,3,-1,5,7,9,-1,11,13,15,-1,17,-1,19,-1,21,-1,23,25,27,29,-1,-1,-1,-1,-1,-1,-1,-1,-1,-1],"loss_changes":[3.0380244E5,6.965934E4,0E0,1.8764719E4,4.4780254E3,7.2731562E3,0E0,1.5747546E3,5.553711E1,4.2297812E3,0E0,4.2870618E2,0E0,5.851062E1,0E0,1.1156875E3,0E0,1.5375757E2,4.462397E1,9.281741E1,4.3017578E-1,0E0,0E0,0E0,0E0,0E0,0E0,0E0,0E0,0E0,0E0],"parents":[2147483647,0,0,1,1,3,3,4,4,5,5,7,7,8,8,9,9,11,11,13,13,15,15,17,17,18,18,19,19,20,20],"right_children":[2,4,-1,6,8,10,-1,12,14,16,-1,18,-1,20,-1,22,-1,24,26,28,30,-1,-1,-1,-1,-1,-1,-1,-1,-1,-1],"split_conditions":[3.460387E-1,1E0,7.91382E-2,1E0,1E0,1E0,7.910661E-2,1E0,1E0,1E0,7.905253E-2,1E0,7.8893594E-2,1E0,7.908621E-2,1E0,7.898827E-2,-1.6003247E0,-2.3159316E-1,1E0,3E0,-7.815671E-2,-2.9724643E-2,9.271262E-2,-7.414153E-2,-7.011195E-2,6.0031176E-2,2.6123542E-2,8.018358E-2,3.4534898E-2,7.961308E-2],"split_indices":[27,25,0,21,26,22,0,21,14,17,0,24,0,23,0,20,0,15,6,24,9,0,0,0,0,0,0,0,0,0,0],"split_type":[0,0,0,0,0,0,0,0,0,0,0,0,0,0,0,0,0,0,0,0,0,0,0,0,0,0,0,0,0,0,0],"sum_hessian":[1.6772645E5,9.734161E4,7.038484E4,8.71261E4,1.0215511E4,8.5111875E4,2.0142256E3,1.1343169E3,9.081193E3,8.4355945E4,7.5593475E2,8.682994E2,2.6601752E2,6.3252673E2,8.448667E3,8.392243E4,4.3351068E2,7.8722314E2,8.1076256E1,3.29136E2,3.0339072E2,8.2714375E4,1.2080527E3,1.324622E1,7.739769E2,6.383203E0,7.4693054E1,1.9380437E2,1.3533163E2,2.6601877E0,3.0073053E2],"tree_param":{"num_deleted":"0","num_feature":"34","num_nodes":"31","size_leaf_vector":"1"}},{"base_weights":[6.886728E-5,-1.1114197E0,7.692106E-2,-1.3927562E0,1.2879255E0,-1.4620742E0,7.6890044E-2,-5.298854E-1,1.5155696E0,-1.4889456E0,7.683699E-2,-1.1608344E0,7.668102E-2,1.2243395E0,7.6868586E-2,-1.5045761E0,7.677391E-2,-1.379827E0,9.448035E-1,9.323897E-1,1.5401535E0,-7.6155566E-2,-3.8767044E-2,-7.3933005E-2,2.7227191E-2,-6.812872E-2,5.7837874E-2,2.4397967E-2,7.876485E-2,3.3438295E-2,7.728426E-2],"categories":[],"categories_nodes":[],"categories_segments":[],"categories_sizes":[],"default_left":[0,0,0,0,0,0,0,0,0,0,0,0,0,0,0,0,0,0,0,0,0,0,0,0,0,0,0,0,0,0,0],"id":7,"left_children":[1,3,-1,5,7,9,-1,11,13,15,-1,17,-1,19,-1,21,-1,23,25,27,29,-1,-1,-1,-1,-1,-1,-1,-1,-1,-1],"loss_changes":[2.805907E5,6.4310117E4,0E0,1.732411E4,4.1384883E3,6.7148594E3,0E0,1.4515781E3,5.4539062E1,3.90525E3,0E0,3.9480408E2,0E0,5.6082336E1,0E0,1.1090312E3,0E0,1.4789441E2,4.1182335E1,9.257761E1,4.0338135E-1,0E0,0E0,0E0,0E0,0E0,0E0,0E0,0E0,0E0,0E0],"parents":[2147483647,0,0,1,1,3,3,4,4,5,5,7,7,8,8,9,9,11,11,13,13,15,15,17,17,18,18,19,19,20,20],"right_children":[2,4,-1,6,8,10,-1,12,14,16,-1,18,-1,20,-1,22,-1,24,26,28,30,-1,-1,-1,-1,-1,-1,-1,-1,-1,-1],"split_conditions":[3.460387E-1,1E0,7.692106E-2,1E0,1E0,1E0,7.6890044E-2,1E0,1E0,1E0,7.683699E-2,1E0,7.668102E-2,1E0,7.6868586E-2,1E0,7.677391E-2,1E0,-2.3159316E-1,1E0,3E0,-7.6155566E-2,-3.8767044E-2,-7.3933005E-2,2.7227191E-2,-6.812872E-2,5.7837874E-2,2.4397967E-2,7.876485E-2,3.3438295E-2,7.728426E-2],"split_indices":[27,25,0,21,26,22,0,21,14,17,0,24,0,23,0,23,0,23,6,21,9,0,0,0,0,0,0,0,0,0,0],"split_type":[0,0,0,0,0,0,0,0,0,0,0,0,0,0,0,0,0,0,0,0,0,0,0,0,0,0,0,0,0,0,0],"sum_hessian":[1.6409947E5,9.526731E4,6.883216E4,8.526942E4,9.997892E3,8.329959E4,1.9698268E3,1.1125444E3,8.885347E3,8.25603E4,7.392943E2,8.523597E2,2.6018475E2,6.228308E2,8.262517E3,8.213631E4,4.2398294E2,7.7237506E2,7.99846E1,3.2569702E2,2.9713376E2,8.009931E4,2.037001E3,7.34865E2,3.7510063E1,6.2724724E0,7.371213E1,1.9361406E2,1.3208298E2,2.6432812E0,2.9449048E2],"tree_param":{"num_deleted":"0","num_feature":"34","num_nodes":"31","size_leaf_vector":"1"}},{"base_weights":[8.48042E-5,-1.081599E0,7.4927814E-2,-1.3553765E0,1.2535634E0,-1.4228052E0,7.489714E-2,-5.1465833E-1,1.4754996E0,-1.4489444E0,7.484465E-2,-1.1266745E0,7.469042E-2,1.1839387E0,7.48746E-2,-1.4641495E0,7.478227E-2,-1.3400184E0,9.1090775E-1,9.060884E-1,7.5602055E-2,-7.5046755E-2,-5.3999867E-2,-6.965216E-2,1.0849824E-1,-6.6305295E-2,5.5788767E-2,5.2667946E-2,-4.936417E-2],"categories":[],"categories_nodes":[],"categories_segments":[],"categories_sizes":[],"default_left":[0,0,0,0,0,0,0,0,0,0,0,0,0,0,0,0,0,0,0,0,0,0,0,0,0,0,0,0,0],"id":8,"left_children":[1,3,-1,5,7,9,-1,11,13,15,-1,17,-1,19,-1,21,-1,23,25,27,-1,-1,-1,-1,-1,-1,-1,-1,-1],"loss_changes":[2.5971067E5,5.949367E4,0E0,1.6026984E4,3.8331084E3,6.2121406E3,0E0,1.341248E3,5.386328E1,3.613E3,0E0,3.6455896E2,0E0,5.4546143E1,0E0,1.1321562E3,0E0,1.4391516E2,3.8058334E1,9.434183E1,0E0,0E0,0E0,0E0,0E0,0E0,0E0,0E0,0E0],"parents":[2147483647,0,0,1,1,3,3,4,4,5,5,7,7,8,8,9,9,11,11,13,13,15,15,17,17,18,18,19,19],"right_children":[2,4,-1,6,8,10,-1,12,14,16,-1,18,-1,20,-1,22,-1,24,26,28,-1,-1,-1,-1,-1,-1,-1,-1,-1],"split_conditions":[3.460387E-1,1E0,7.4927814E-2,1E0,1E0,1E0,7.489714E-2,1E0,1E0,1E0,7.484465E-2,1E0,7.469042E-2,1E0,7.48746E-2,1E0,7.478227E-2,1E0,-2.3159316E-1,6E0,7.5602055E-2,-7.5046755E-2,-5.3999867E-2,-6.965216E-2,1.0849824E-1,-6.6305295E-2,5.5788767E-2,5.2667946E-2,-4.936417E-2],"split_indices":[27,25,0,21,26,22,0,21,14,17,0,24,0,24,0,26,0,17,6,10,0,0,0,0,0,0,0,0,0],"split_type":[0,0,0,0,0,0,0,0,0,0,0,0,0,0,0,0,0,0,0,0,0,0,0,0,0,0,0,0,0],"sum_hessian":[1.6022694E5,9.305483E4,6.717211E4,8.32902E4,9.76463E3,8.136784E4,1.9223567E3,1.0887737E3,8.675855E3,8.064634E4,7.215021E2,8.3482605E2,2.5394757E2,6.1236206E2,8.0634937E3,8.023255E4,4.137954E2,7.5601074E2,7.881532E1,3.3360953E2,2.7875256E2,7.32184E4,7.014148E3,7.453539E2,1.0656858E1,6.1532364E0,7.266209E1,3.0994498E2,2.3664528E1],"tree_param":{"num_deleted":"0","num_feature":"34","num_nodes":"29","size_leaf_vector":"1"}},{"base_weights":[1.01243706E-4,-1.0545E0,7.31282E-2,-1.3214161E0,1.2222779E0,-1.3871237E0,7.3097646E-2,-5.001827E-1,1.4391832E0,-1.412596E0,7.3045366E-2,-1.093958E0,7.289177E-2,1.1460371E0,7.307392E-2,-1.4274136E0,7.2983235E-2,-1.3018231E0,8.7911314E-1,8.5392284E-1,1.46754E0,-7.212105E-2,-2.2044158E-2,-7.010758E-2,2.8303668E-2,-7.053953E-2,5.3326685E-2,2.1006944E-2,7.487966E-2,3.051059E-2,7.3661044E-2],"categories":[],"categories_nodes":[],"categories_segments":[],"categories_sizes":[],"default_left":[0,0,0,0,0,0,0,0,0,0,0,0,0,0,0,0,0,0,0,0,0,0,0,0,0,0,0,0,0,0,0],"id":9,"left_children":[1,3,-1,5,7,9,-1,11,13,15,-1,17,-1,19,-1,21,-1,23,25,27,29,-1,-1,-1,-1,-1,-1,-1,-1,-1,-1],"loss_changes":[2.408518E5,5.514111E4,0E0,1.4854953E4,3.5580205E3,5.7578906E3,0E0,1.2405422E3,5.3595703E1,3.348875E3,0E0,3.367376E2,0E0,5.531726E1,0E0,1.1576406E3,0E0,1.3959753E2,3.5231304E1,8.8158844E1,4.9072266E-1,0E0,0E0,0E0,0E0,0E0,0E0,0E0,0E0,0E0,0E0],"parents":[2147483647,0,0,1,1,3,3,4,4,5,5,7,7,8,8,9,9,11,11,13,13,15,15,17,17,18,18,19,19,20,20],"right_children":[2,4,-1,6,8,10,-1,12,14,16,-1,18,-1,20,-1,22,-1,24,26,28,30,-1,-1,-1,-1,-1,-1,-1,-1,-1,-1],"split_conditions":[3.460387E-1,1E0,7.31282E-2,1E0,1E0,1E0,7.3097646E-2,1E0,1E0,1E0,7.3045366E-2,1E0,7.289177E-2,1E0,7.307392E-2,1E0,7.2983235E-2,1E0,-7.549266E-2,1E0,3E0,-7.212105E-2,-2.2044158E-2,-7.010758E-2,2.8303668E-2,-7.053953E-2,5.3326685E-2,2.1006944E-2,7.487966E-2,3.051059E-2,7.3661044E-2],"split_indices":[27,25,0,21,26,22,0,21,14,17,0,24,0,23,0,20,0,23,33,21,9,0,0,0,0,0,0,0,0,0,0],"split_type":[0,0,0,0,0,0,0,0,0,0,0,0,0,0,0,0,0,0,0,0,0,0,0,0,0,0,0,0,0,0,0],"sum_hessian":[1.5616052E5,9.073243E4,6.5428082E4,8.121203E4,9.520403E3,7.933955E4,1.8724843E3,1.0646487E3,8.455755E3,7.8636734E4,7.0280884E2,8.172548E2,2.4739386E2,6.0135345E2,7.8544014E3,7.823365E4,4.0309146E2,7.3967E2,7.7584816E1,3.1699292E2,2.8436053E2,7.7060914E4,1.1727338E3,7.0220264E2,3.746737E1,5.3758087E0,7.220901E1,1.9035863E2,1.26634285E2,2.585494E0,2.8177505E2],"tree_param":{"num_deleted":"0","num_feature":"34","num_nodes":"31","size_leaf_vector":"1"}},{"base_weights":[1.168294E-4,-1.0298798E0,7.149716E-2,-1.2905616E0,1.1938692E0,-1.3547039E0,7.1466535E-2,-4.8728588E-1,1.4061708E0,-1.3795696E0,7.1414135E-2,-1.0647967E0,7.1260266E-2,1.1108471E0,7.144159E-2,-1.3940347E0,7.1351886E-2,-1.2555267E0,9.748871E-1,8.32643E-1,7.227521E-2,-7.0687346E-2,-3.0671922E-2,8.1585184E-2,-6.749921E-2,1.6793385E-2,8.118187E-2,7.271068E-2,1.8884508E-2],"categories":[],"categories_nodes":[],"categories_segments":[],"categories_sizes":[],"default_left":[0,0,0,0,0,0,0,0,0,0,0,0,0,0,0,0,0,0,0,0,0,0,0,0,0,0,0,0,0],"id":10,"left_children":[1,3,-1,5,7,9,-1,11,13,15,-1,17,-1,19,-1,21,-1,23,25,27,-1,-1,-1,-1,-1,-1,-1,-1,-1],"loss_changes":[2.2376434E5,5.11989E4,0E0,1.3793375E4,3.3083408E3,5.346422E3,0E0,1.1500067E3,5.3481445E1,3.1096875E3,0E0,3.121521E2,0E0,5.3810974E1,0E0,1.1709375E3,0E0,2.0165283E2,2.8021744E1,9.136272E1,0E0,0E0,0E0,0E0,0E0,0E0,0E0,0E0,0E0],"parents":[2147483647,0,0,1,1,3,3,4,4,5,5,7,7,8,8,9,9,11,11,13,13,15,15,17,17,18,18,19,19],"right_children":[2,4,-1,6,8,10,-1,12,14,16,-1,18,-1,20,-1,22,-1,24,26,28,-1,-1,-1,-1,-1,-1,-1,-1,-1],"split_conditions":[3.460387E-1,1E0,7.149716E-2,1E0,1E0,1E0,7.1466535E-2,1E0,1E0,1E0,7.1414135E-2,1E0,7.1260266E-2,1E0,7.144159E-2,1E0,7.1351886E-2,-1.6003247E0,1E0,-1.4106007E0,7.227521E-2,-7.0687346E-2,-3.0671922E-2,8.1585184E-2,-6.749921E-2,1.6793385E-2,8.118187E-2,7.271068E-2,1.8884508E-2],"split_indices":[27,25,0,21,26,22,0,21,14,17,0,23,0,24,0,24,0,15,14,15,0,0,0,0,0,0,0,0,0],"split_type":[0,0,0,0,0,0,0,0,0,0,0,0,0,0,0,0,0,0,0,0,0,0,0,0,0,0,0,0,0],"sum_hessian":[1.5193789E5,8.831741E4,6.362048E4,7.905098E4,9.266428E3,7.723018E4,1.8207927E3,1.038842E3,8.227586E3,7.654675E4,6.83433E2,7.982419E2,2.4060011E2,5.8990045E2,7.6376855E3,7.615475E4,3.9199612E2,7.303332E2,6.7908714E1,3.2402383E2,2.6587662E2,7.427823E4,1.876529E3,2.2620846E1,7.0771234E2,3.497552E1,3.2933197E1,1.3600845E2,1.8801538E2],"tree_param":{"num_deleted":"0","num_feature":"34","num_nodes":"29","size_leaf_vector":"1"}},{"base_weights":[1.3617556E-4,-1.0072364E0,7.001375E-2,-1.2621914E0,1.167741E0,-1.3248879E0,6.998289E-2,-4.7473684E-1,1.3759562E0,-1.3491931E0,6.993009E-2,-1.0362895E0,6.977513E-2,1.0769721E0,6.995665E-2,-1.3633327E0,6.9867395E-2,-1.23958E0,8.435029E-1,7.8324085E-1,1.406964E0,-6.895518E-2,-1.8127045E-2,-6.4660236E-2,1.0502807E-1,-1.1803846E-2,6.131619E-2,1.761078E-2,7.1320154E-2,2.7708162E-2,7.0644714E-2],"categories":[],"categories_nodes":[],"categories_segments":[],"categories_sizes":[],"default_left":[0,0,0,0,0,0,0,0,0,0,0,0,0,0,0,0,0,0,0,0,0,0,0,0,0,0,0,0,0,0,0],"id":11,"left_children":[1,3,-1,5,7,9,-1,11,13,15,-1,17,-1,19,-1,21,-1,23,25,27,29,-1,-1,-1,-1,-1,-1,-1,-1,-1,-1],"loss_changes":[2.0821069E5,4.7607594E4,0E0,1.2826148E4,3.0813662E3,4.9715625E3,0E0,1.066627E3,5.3893555E1,2.8917188E3,0E0,2.993452E2,0E0,5.507019E1,0E0,1.1679844E3,0E0,1.2895947E2,3.2019215E1,8.511978E1,5.910034E-1,0E0,0E0,0E0,0E0,0E0,0E0,0E0,0E0,0E0,0E0],"parents":[2147483647,0,0,1,1,3,3,4,4,5,5,7,7,8,8,9,9,11,11,13,13,15,15,17,17,18,18,19,19,20,20],"right_children":[2,4,-1,6,8,10,-1,12,14,16,-1,18,-1,20,-1,22,-1,24,26,28,30,-1,-1,-1,-1,-1,-1,-1,-1,-1,-1],"split_conditions":[3.460387E-1,1E0,7.001375E-2,1E0,1E0,1E0,6.998289E-2,1E0,1E0,1E0,6.993009E-2,1E0,6.977513E-2,1E0,6.995665E-2,1E0,6.9867395E-2,1E0,1E0,1E0,3E0,-6.895518E-2,-1.8127045E-2,-6.4660236E-2,1.0502807E-1,-1.1803846E-2,6.131619E-2,1.761078E-2,7.1320154E-2,2.7708162E-2,7.0644714E-2],"split_indices":[27,25,0,21,26,22,0,21,14,17,0,24,0,23,0,20,0,17,19,24,9,0,0,0,0,0,0,0,0,0,0],"split_type":[0,0,0,0,0,0,0,0,0,0,0,0,0,0,0,0,0,0,0,0,0,0,0,0,0,0,0,0,0,0,0],"sum_hessian":[1.4761686E5,8.584984E4,6.1767016E4,7.6842625E4,9.00722E3,7.5074836E4,1.7677891E3,1.013228E3,7.9939917E3,7.4411266E4,6.635647E2,7.79595E2,2.3363304E2,5.7851965E2,7.415472E3,7.403065E4,3.8061847E2,7.0382074E2,7.577428E1,3.07861E2,2.7065863E2,7.2881766E4,1.1488801E3,6.9330286E2,1.0517862E1,1.9936201E1,5.5838074E1,1.8525623E2,1.2260476E2,2.5213916E0,2.6813724E2],"tree_param":{"num_deleted":"0","num_feature":"34","num_nodes":"31","size_leaf_vector":"1"}},{"base_weights":[1.5427239E-4,-9.8651874E-1,6.866035E-2,-1.2362447E0,1.1437641E0,-1.2976174E0,6.8629116E-2,-4.6296275E-1,1.3483224E0,-1.3214097E0,6.857567E-2,-1.0094063E0,6.8418875E-2,1.0456117E0,6.860152E-2,-1.3352515E0,6.851222E-2,-1.1989343E0,9.469314E-1,7.7012074E-1,7.009139E-2,-6.780889E-2,-2.6787369E-2,7.823517E-2,-6.455853E-2,1.65213E-2,7.894691E-2,5.3382028E-2,-4.2150166E-2],"categories":[],"categories_nodes":[],"categories_segments":[],"categories_sizes":[],"default_left":[0,0,0,0,0,0,0,0,0,0,0,0,0,0,0,0,0,0,0,0,0,0,0,0,0,0,0,0,0],"id":12,"left_children":[1,3,-1,5,7,9,-1,11,13,15,-1,17,-1,19,-1,21,-1,23,25,27,-1,-1,-1,-1,-1,-1,-1,-1,-1],"loss_changes":[1.9402614E5,4.433435E4,0E0,1.1944648E4,2.8746816E3,4.629836E3,0E0,9.9040857E2,5.423633E1,2.6930703E3,0E0,2.835816E2,0E0,5.4622864E1,0E0,1.2016172E3,0E0,1.7916107E2,2.5910885E1,1.5558038E2,0E0,0E0,0E0,0E0,0E0,0E0,0E0,0E0,0E0],"parents":[2147483647,0,0,1,1,3,3,4,4,5,5,7,7,8,8,9,9,11,11,13,13,15,15,17,17,18,18,19,19],"right_children":[2,4,-1,6,8,10,-1,12,14,16,-1,18,-1,20,-1,22,-1,24,26,28,-1,-1,-1,-1,-1,-1,-1,-1,-1],"split_conditions":[3.460387E-1,1E0,6.866035E-2,1E0,1E0,1E0,6.8629116E-2,1E0,1E0,1E0,6.857567E-2,1E0,6.8418875E-2,1E0,6.860152E-2,1E0,6.851222E-2,-1.6003247E0,1E0,4.5372552E-1,7.009139E-2,-6.780889E-2,-2.6787369E-2,7.823517E-2,-6.455853E-2,1.65213E-2,7.894691E-2,5.3382028E-2,-4.2150166E-2],"split_indices":[27,25,0,21,26,22,0,21,14,17,0,23,0,21,0,23,0,15,14,29,0,0,0,0,0,0,0,0,0],"split_type":[0,0,0,0,0,0,0,0,0,0,0,0,0,0,0,0,0,0,0,0,0,0,0,0,0,0,0,0,0],"sum_hessian":[1.4321672E5,8.3333625E4,5.98831E4,7.459009E4,8.743529E3,7.287618E4,1.7139132E3,9.873116E2,7.756218E3,7.223281E4,6.4336884E2,7.6076105E2,2.2655052E2,5.66614E2,7.1896035E3,7.186376E4,3.6905273E2,6.9392175E2,6.683928E1,3.2129343E2,2.4532057E2,7.0030086E4,1.8336747E3,2.1896013E1,6.7202576E2,3.4605434E1,3.2233845E1,2.7154807E2,4.974537E1],"tree_param":{"num_deleted":"0","num_feature":"34","num_nodes":"29","size_leaf_vector":"1"}},{"base_weights":[1.7382466E-4,-9.6733564E-1,6.742202E-2,-1.2122086E0,1.1216506E0,-1.272349E0,6.739027E-2,-4.5201966E-1,1.3228596E0,-1.2956635E0,6.733598E-2,-9.8440224E-1,6.717668E-2,1.0152617E0,6.736126E-2,-1.3092278E0,6.72715E-2,-1.1843256E0,8.11618E-1,7.1973693E-1,1.3550861E0,-6.754169E-2,-4.406647E-2,-6.613773E-2,6.76339E-3,-1.1099518E-2,5.92028E-2,1.4766544E-2,6.935926E-2,2.5589595E-2,6.806146E-2],"categories":[],"categories_nodes":[],"categories_segments":[],"categories_sizes":[],"default_left":[0,0,0,0,0,0,0,0,0,0,0,0,0,0,0,0,0,0,0,0,0,0,0,0,0,0,0,0,0,0,0],"id":13,"left_children":[1,3,-1,5,7,9,-1,11,13,15,-1,17,-1,19,-1,21,-1,23,25,27,29,-1,-1,-1,-1,-1,-1,-1,-1,-1,-1],"loss_changes":[1.810394E5,4.1334453E4,0E0,1.1136797E4,2.6851738E3,4.316703E3,0E0,9.208228E2,5.4973633E1,2.5109844E3,0E0,2.6756702E2,0E0,5.4844482E1,0E0,1.2394219E3,0E0,1.2229962E2,2.9121181E1,8.440787E1,6.368103E-1,0E0,0E0,0E0,0E0,0E0,0E0,0E0,0E0,0E0,0E0],"parents":[2147483647,0,0,1,1,3,3,4,4,5,5,7,7,8,8,9,9,11,11,13,13,15,15,17,17,18,18,19,19,20,20],"right_children":[2,4,-1,6,8,10,-1,12,14,16,-1,18,-1,20,-1,22,-1,24,26,28,30,-1,-1,-1,-1,-1,-1,-1,-1,-1,-1],"split_conditions":[3.460387E-1,1E0,6.742202E-2,1E0,1E0,1E0,6.739027E-2,1E0,1E0,1E0,6.733598E-2,1E0,6.717668E-2,1E0,6.736126E-2,1E0,6.72715E-2,1E0,1E0,1E0,3E0,-6.754169E-2,-4.406647E-2,-6.613773E-2,6.76339E-3,-1.1099518E-2,5.92028E-2,1.4766544E-2,6.935926E-2,2.5589595E-2,6.806146E-2],"split_indices":[27,25,0,21,26,22,0,21,14,17,0,24,0,23,0,26,0,14,19,21,9,0,0,0,0,0,0,0,0,0,0],"split_type":[0,0,0,0,0,0,0,0,0,0,0,0,0,0,0,0,0,0,0,0,0,0,0,0,0,0,0,0,0,0,0],"sum_hessian":[1.3878288E5,8.080086E4,5.7982023E4,7.232345E4,8.477407E3,7.066391E4,1.6595455E3,9.608996E2,7.516508E3,7.004092E4,6.229883E2,7.414971E2,2.1940254E2,5.548275E2,6.96168E3,6.968354E4,3.5738083E2,6.675316E2,7.396548E1,2.9842404E2,2.5640344E2,6.3506434E4,6.177103E3,6.04152E2,6.337959E1,1.969921E1,5.4266266E1,1.8330777E2,1.1511629E2,2.4640732E0,2.5393938E2],"tree_param":{"num_deleted":"0","num_feature":"34","num_nodes":"31","size_leaf_vector":"1"}},{"base_weights":[1.9361322E-4,-9.4956887E-1,6.628602E-2,-1.1899403E0,1.101222E0,-1.2489341E0,6.625363E-2,-4.418356E-1,1.2994425E0,-1.2718043E0,6.619826E-2,-9.608722E-1,6.6035844E-2,9.8714536E-1,6.62231E-2,-1.2851106E0,6.6132516E-2,-1.1493443E0,9.1206473E-1,7.038577E-1,1.3433936E0,-6.534892E-2,-2.2136778E-2,-6.1788738E-2,8.956829E-2,1.6385263E-2,7.5860865E-2,1.3006761E-2,6.825744E-2,2.6770148E-2,6.737903E-2],"categories":[],"categories_nodes":[],"categories_segments":[],"categories_sizes":[],"default_left":[0,0,0,0,0,0,0,0,0,0,0,0,0,0,0,0,0,0,0,0,0,0,0,0,0,0,0,0,0,0,0],"id":14,"left_children":[1,3,-1,5,7,9,-1,11,13,15,-1,17,-1,19,-1,21,-1,23,25,27,29,-1,-1,-1,-1,-1,-1,-1,-1,-1,-1],"loss_changes":[1.6912366E5,3.8580836E4,0E0,1.0395305E4,2.5121025E3,4.0292812E3,0E0,8.5707245E2,5.554785E1,2.3438594E3,0E0,2.5635162E2,0E0,5.3920532E1,0E0,1.2428203E3,0E0,1.6934479E2,2.3083717E1,8.9123215E1,8.944702E-2,0E0,0E0,0E0,0E0,0E0,0E0,0E0,0E0,0E0,0E0],"parents":[2147483647,0,0,1,1,3,3,4,4,5,5,7,7,8,8,9,9,11,11,13,13,15,15,17,17,18,18,19,19,20,20],"right_children":[2,4,-1,6,8,10,-1,12,14,16,-1,18,-1,20,-1,22,-1,24,26,28,30,-1,-1,-1,-1,-1,-1,-1,-1,-1,-1],"split_conditions":[3.460387E-1,1E0,6.628602E-2,1E0,1E0,1E0,6.625363E-2,1E0,1E0,1E0,6.619826E-2,1E0,6.6035844E-2,1E0,6.62231E-2,1E0,6.6132516E-2,1E0,1E0,1E0,-2.3362446E-1,-6.534892E-2,-2.2136778E-2,-6.1788738E-2,8.956829E-2,1.6385263E-2,7.5860865E-2,1.3006761E-2,6.825744E-2,2.6770148E-2,6.737903E-2],"split_indices":[27,25,0,21,26,22,0,21,14,17,0,23,0,24,0,24,0,17,14,21,6,0,0,0,0,0,0,0,0,0,0],"split_type":[0,0,0,0,0,0,0,0,0,0,0,0,0,0,0,0,0,0,0,0,0,0,0,0,0,0,0,0,0,0,0],"sum_hessian":[1.343366E5,7.826131E4,5.607528E4,7.00511E4,8.210209E3,6.8446086E4,1.6050156E3,9.3447894E2,7.2757295E3,6.784355E4,6.0254596E2,7.222466E2,2.1223238E2,5.4265564E2,6.733074E3,6.749787E4,3.456732E2,6.565635E2,6.5683105E1,3.0393948E2,2.3871614E2,6.578944E4,1.7084344E3,6.3838055E2,1.818288E1,3.419987E1,3.1483238E1,1.8272528E2,1.2121421E2,1.8949883E0,2.3682115E2],"tree_param":{"num_deleted":"0","num_feature":"34","num_nodes":"31","size_leaf_vector":"1"}},{"base_weights":[2.1607059E-4,-9.33059E-1,6.524139E-2,-1.1692551E0,1.0822362E0,-1.2271799E0,6.520825E-2,-4.3186575E-1,1.277775E0,-1.2496356E0,6.5151595E-2,-9.378594E-1,6.498549E-2,9.602269E-1,6.517612E-2,-1.2627012E0,6.5084346E-2,-1.1366603E0,7.86383E-1,6.6242E-1,1.3116177E0,-6.404593E-2,-9.015384E-3,-6.380695E-2,6.893622E-3,-5.8812138E-2,4.8060715E-2,4.1045178E-2,-5.5539172E-2,2.3171356E-2,6.59069E-2],"categories":[],"categories_nodes":[],"categories_segments":[],"categories_sizes":[],"default_left":[0,0,0,0,0,0,0,0,0,0,0,0,0,0,0,0,0,0,0,0,0,0,0,0,0,0,0,0,0,0,0],"id":15,"left_children":[1,3,-1,5,7,9,-1,11,13,15,-1,17,-1,19,-1,21,-1,23,25,27,29,-1,-1,-1,-1,-1,-1,-1,-1,-1,-1],"loss_changes":[1.5816425E5,3.60485E4,0E0,9.713273E3,2.3527822E3,3.7648984E3,0E0,7.980447E2,5.627832E1,2.190125E3,0E0,2.4233813E2,0E0,5.4754913E1,0E0,1.2877344E3,0E0,1.1251965E2,2.631882E1,8.233175E1,7.3202515E-1,0E0,0E0,0E0,0E0,0E0,0E0,0E0,0E0,0E0,0E0],"parents":[2147483647,0,0,1,1,3,3,4,4,5,5,7,7,8,8,9,9,11,11,13,13,15,15,17,17,18,18,19,19,20,20],"right_children":[2,4,-1,6,8,10,-1,12,14,16,-1,18,-1,20,-1,22,-1,24,26,28,30,-1,-1,-1,-1,-1,-1,-1,-1,-1,-1],"split_conditions":[3.460387E-1,1E0,6.524139E-2,1E0,1E0,1E0,6.520825E-2,1E0,1E0,1E0,6.5151595E-2,1E0,6.498549E-2,1E0,6.517612E-2,1E0,6.5084346E-2,1E0,-2.3159316E-1,6E0,3E0,-6.404593E-2,-9.015384E-3,-6.380695E-2,6.893622E-3,-5.8812138E-2,4.8060715E-2,4.1045178E-2,-5.5539172E-2,2.3171356E-2,6.59069E-2],"split_indices":[27,25,0,21,26,22,0,21,14,17,0,24,0,23,0,20,0,14,6,10,9,0,0,0,0,0,0,0,0,0,0],"split_type":[0,0,0,0,0,0,0,0,0,0,0,0,0,0,0,0,0,0,0,0,0,0,0,0,0,0,0,0,0,0,0],"sum_hessian":[1.2990045E5,7.57277E4,5.4172746E4,6.778375E4,7.943956E3,6.623315E4,1.5506044E3,9.084458E2,7.0355103E3,6.5651E4,5.821478E2,7.033688E2,2.0507706E2,5.3053925E2,6.504971E3,6.5317008E4,3.339905E2,6.3096124E2,7.240753E1,2.8872626E2,2.41813E2,6.4235703E4,1.0813022E3,5.6872186E2,6.2239388E1,5.454E0,6.695354E1,2.6553094E2,2.3195295E1,2.3945203E0,2.3941849E2],"tree_param":{"num_deleted":"0","num_feature":"34","num_nodes":"31","size_leaf_vector":"1"}},{"base_weights":[2.3365443E-4,-9.177845E-1,6.427867E-2,-1.2117385E0,6.622497E-1,-1.2463349E0,6.458788E-2,-8.446516E-1,1.3035983E0,-1.2606674E0,6.612211E-2,-1.1113054E0,6.41362E-2,6.5716344E-1,1.333624E0,-1.2688197E0,6.682331E-2,-1.1817473E0,6.791425E-2,9.594719E-2,6.3912444E-2,1.9227867E0,1.2901858E0,-6.4008124E-2,-4.031659E-2,-6.0817212E-2,6.9087625E-2,-1.741474E-2,8.090645E-2,4.566614E-2,1.114614E-1,1.7959312E-2,6.4800166E-2],"categories":[],"categories_nodes":[],"categories_segments":[],"categories_sizes":[],"default_left":[0,0,0,0,0,0,0,0,0,0,0,0,0,0,0,0,0,0,0,0,0,0,0,0,0,0,0,0,0,0,0,0,0],"id":16,"left_children":[1,3,-1,5,7,9,-1,11,13,15,-1,17,-1,19,21,23,-1,25,-1,27,-1,29,31,-1,-1,-1,-1,-1,-1,-1,-1,-1,-1],"loss_changes":[1.4807108E5,3.4000867E4,0E0,5.347422E3,1.109923E4,2.2431172E3,0E0,1.9465569E3,1.5547852E2,1.2835469E3,0E0,5.317622E2,0E0,1.25195145E2,1.9450098E2,3.1557812E2,0E0,2.6451562E2,0E0,1.2900925E2,0E0,1.608263E2,3.8375E1,0E0,0E0,0E0,0E0,0E0,0E0,0E0,0E0,0E0,0E0],"parents":[2147483647,0,0,1,1,3,3,4,4,5,5,7,7,8,8,9,9,11,11,13,13,14,14,15,15,17,17,19,19,21,21,22,22],"right_children":[2,4,-1,6,8,10,-1,12,14,16,-1,18,-1,20,22,24,-1,26,-1,28,-1,30,32,-1,-1,-1,-1,-1,-1,-1,-1,-1,-1],"split_conditions":[3.460387E-1,1E0,6.427867E-2,1E0,1E0,1E0,6.458788E-2,1E0,-2.313452E-1,1E0,6.612211E-2,1E0,6.41362E-2,1E0,-7.346025E-2,1E0,6.682331E-2,1E0,6.791425E-2,1E0,6.3912444E-2,4.5251872E-2,1E0,-6.4008124E-2,-4.031659E-2,-6.0817212E-2,6.9087625E-2,-1.741474E-2,8.090645E-2,4.566614E-2,1.114614E-1,1.7959312E-2,6.4800166E-2],"split_indices":[27,14,0,21,26,22,0,21,6,17,0,17,0,21,31,24,0,22,0,23,0,27,10,0,0,0,0,0,0,0,0,0,0],"split_type":[0,0,0,0,0,0,0,0,0,0,0,0,0,0,0,0,0,0,0,0,0,0,0,0,0,0,0,0,0,0,0,0,0],"sum_hessian":[1.25485664E5,7.320285E4,5.2282816E4,6.1720438E4,1.1482409E4,6.0879633E4,8.4080835E2,3.4279177E3,8.054491E3,6.0542344E4,3.3728848E2,3.046531E3,3.8138672E2,3.585268E2,7.6959644E3,6.035341E4,1.8893253E2,2.9625493E3,8.3981544E1,1.8894737E2,1.6957942E2,5.254801E2,7.1704844E3,5.8906918E4,1.446492E3,2.923618E3,3.8931583E1,1.4685855E2,4.208882E1,1.2329805E2,4.0218204E2,4.4916325E1,7.125568E3],"tree_param":{"num_deleted":"0","num_feature":"34","num_nodes":"33","size_leaf_vector":"1"}},{"base_weights":[2.447074E-4,-9.035601E-1,6.338962E-2,-1.1934615E0,6.504811E-1,-1.2275231E0,6.367033E-2,-8.306649E-1,1.2796835E0,-1.2416435E0,6.509532E-2,-1.0926021E0,6.324379E-2,6.3858205E-1,1.3097997E0,-1.2496763E0,6.577574E-2,-1.1618781E0,6.6796266E-2,9.234147E-2,6.301932E-2,1.993311E0,1.2780991E0,-6.307738E-2,-3.868812E-2,-5.9797168E-2,6.784212E-2,-1.6623763E-2,7.84955E-2,3.4811806E-2,1.1501672E-1,1.6711608E-2,6.420399E-2],"categories":[],"categories_nodes":[],"categories_segments":[],"categories_sizes":[],"default_left":[0,0,0,0,0,0,0,0,0,0,0,0,0,0,0,0,0,0,0,0,0,0,0,0,0,0,0,0,0,0,0,0,0],"id":17,"left_children":[1,3,-1,5,7,9,-1,11,13,15,-1,17,-1,19,21,23,-1,25,-1,27,-1,29,31,-1,-1,-1,-1,-1,-1,-1,-1,-1,-1],"loss_changes":[1.3875322E5,3.1853812E4,0E0,5.0084297E3,1.0360936E4,2.1009375E3,0E0,1.8209785E3,1.4980957E2,1.2022812E3,0E0,4.9738477E2,0E0,1.19453354E2,1.589082E2,3.2821875E2,0E0,2.4752783E2,0E0,1.1883168E2,0E0,1.2921216E2,3.9786133E1,0E0,0E0,0E0,0E0,0E0,0E0,0E0,0E0,0E0,0E0],"parents":[2147483647,0,0,1,1,3,3,4,4,5,5,7,7,8,8,9,9,11,11,13,13,14,14,15,15,17,17,19,19,21,21,22,22],"right_children":[2,4,-1,6,8,10,-1,12,14,16,-1,18,-1,20,22,24,-1,26,-1,28,-1,30,32,-1,-1,-1,-1,-1,-1,-1,-1,-1,-1],"split_conditions":[3.460387E-1,1E0,6.338962E-2,1E0,1E0,1E0,6.367033E-2,1E0,-2.313452E-1,1E0,6.509532E-2,1E0,6.324379E-2,1E0,-7.361252E-2,1E0,6.577574E-2,1E0,6.6796266E-2,1E0,6.301932E-2,4E0,1E0,-6.307738E-2,-3.868812E-2,-5.9797168E-2,6.784212E-2,-1.6623763E-2,7.84955E-2,3.4811806E-2,1.1501672E-1,1.6711608E-2,6.420399E-2],"split_indices":[27,14,0,21,26,22,0,21,6,17,0,17,0,21,31,23,0,22,0,23,0,7,10,0,0,0,0,0,0,0,0,0,0],"split_type":[0,0,0,0,0,0,0,0,0,0,0,0,0,0,0,0,0,0,0,0,0,0,0,0,0,0,0,0,0,0,0,0,0],"sum_hessian":[1.2111471E5,7.070203E4,5.041268E4,5.958658E4,1.1115452E4,5.877553E4,8.110478E2,3.3139873E3,7.801465E3,5.8449746E4,3.2578586E2,2.9461987E3,3.6778873E2,3.5103314E2,7.4504316E3,5.8267223E4,1.8252293E2,2.8649937E3,8.120496E1,1.8748259E2,1.6355055E2,3.2748615E2,7.122946E3,5.6847547E4,1.4196774E3,2.8272803E3,3.771329E1,1.4621826E2,4.1264324E1,6.3306072E1,2.6418005E2,4.520834E1,7.0777373E3],"tree_param":{"num_deleted":"0","num_feature":"34","num_nodes":"33","size_leaf_vector":"1"}},{"base_weights":[2.5622832E-4,-8.90261E-1,6.256709E-2,-1.1764194E0,6.393488E-1,-1.2099806E0,6.282156E-2,-8.174775E-1,1.2570297E0,-1.2239026E0,6.414627E-2,-1.074942E0,6.2417425E-2,6.2063456E-1,1.2872806E0,-1.2318237E0,6.480665E-2,-1.1431094E0,6.576E-2,8.8874824E-2,6.2191363E-2,1.7718544E0,1.2496046E0,-6.2205177E-2,-3.71282E-2,-5.883347E-2,6.668571E-2,-1.5866118E-2,7.618848E-2,4.1087367E-2,1.0299853E-1,1.6185528E-2,6.2792085E-2],"categories":[],"categories_nodes":[],"categories_segments":[],"categories_sizes":[],"default_left":[0,0,0,0,0,0,0,0,0,0,0,0,0,0,0,0,0,0,0,0,0,0,0,0,0,0,0,0,0,0,0,0,0],"id":18,"left_children":[1,3,-1,5,7,9,-1,11,13,15,-1,17,-1,19,21,23,-1,25,-1,27,-1,29,31,-1,-1,-1,-1,-1,-1,-1,-1,-1,-1],"loss_changes":[1.30133375E5,2.986796E4,0E0,4.694883E3,9.6782705E3,1.9694141E3,0E0,1.7047637E3,1.4459961E2,1.1271406E3,0E0,4.6557324E2,0E0,1.1410242E2,1.2939746E2,3.3678125E2,0E0,2.3180371E2,0E0,1.0950211E2,0E0,1.400155E2,3.824121E1,0E0,0E0,0E0,0E0,0E0,0E0,0E0,0E0,0E0,0E0],"parents":[2147483647,0,0,1,1,3,3,4,4,5,5,7,7,8,8,9,9,11,11,13,13,14,14,15,15,17,17,19,19,21,21,22,22],"right_children":[2,4,-1,6,8,10,-1,12,14,16,-1,18,-1,20,22,24,-1,26,-1,28,-1,30,32,-1,-1,-1,-1,-1,-1,-1,-1,-1,-1],"split_conditions":[3.460387E-1,1E0,6.256709E-2,1E0,1E0,1E0,6.282156E-2,1E0,-2.313452E-1,1E0,6.414627E-2,1E0,6.2417425E-2,1E0,-7.346025E-2,1E0,6.480665E-2,1E0,6.576E-2,1E0,6.2191363E-2,4.5251872E-2,1E0,-6.2205177E-2,-3.71282E-2,-5.883347E-2,6.668571E-2,-1.5866118E-2,7.618848E-2,4.1087367E-2,1.0299853E-1,1.6185528E-2,6.2792085E-2],"split_indices":[27,14,0,21,26,22,0,21,6,17,0,17,0,21,31,24,0,22,0,23,0,27,10,0,0,0,0,0,0,0,0,0,0],"split_type":[0,0,0,0,0,0,0,0,0,0,0,0,0,0,0,0,0,0,0,0,0,0,0,0,0,0,0,0,0,0,0,0,0],"sum_hessian":[1.1680244E5,6.823404E4,4.8568402E4,5.74808E4,1.0753239E4,5.6699137E4,7.816634E2,3.2016616E3,7.5515776E3,5.6384758E4,3.143795E2,2.8472834E3,3.5437814E2,3.4364944E2,7.207928E3,5.620859E4,1.7616577E2,2.7688374E3,7.8446106E1,1.8604393E2,1.5760553E2,5.166719E2,6.6912563E3,5.483085E4,1.3777415E3,2.7323403E3,3.649712E1,1.4560437E2,4.0439556E1,1.21118195E2,3.9555365E2,4.5126286E1,6.64613E3],"tree_param":{"num_deleted":"0","num_feature":"34","num_nodes":"33","size_leaf_vector":"1"}},{"base_weights":[2.6811514E-4,-8.777921E-1,6.180479E-2,-1.2015643E0,4.402976E-1,-1.2268167E0,6.1712146E-2,-5.8415306E-1,1.235435E0,-1.2317525E0,6.478473E-2,-8.6929893E-1,1.2653395E0,6.0326004E-1,1.265857E0,-1.235007E0,6.653111E-2,-1.0410552E0,1.1299334E0,8.229187E-1,1.5356348E0,8.553956E-2,6.142233E-2,1.8237064E0,1.2384095E0,-6.1927624E-2,-5.413226E-2,-5.6456007E-2,4.8289362E-2,1.7618358E-2,8.418698E-2,1.8059876E-2,6.1517883E-2,9.286013E-2,5.978207E-2,-1.5140556E-2,7.397373E-2,3.0899612E-2,1.0513723E-1,1.5027888E-2,6.2240776E-2],"categories":[],"categories_nodes":[],"categories_segments":[],"categories_sizes":[],"default_left":[0,0,0,0,0,0,0,0,0,0,0,0,0,0,0,0,0,0,0,0,0,0,0,0,0,0,0,0,0,0,0,0,0,0,0,0,0,0,0,0,0],"id":19,"left_children":[1,3,-1,5,7,9,-1,11,13,15,-1,17,19,21,23,25,-1,27,29,31,33,35,-1,37,39,-1,-1,-1,-1,-1,-1,-1,-1,-1,-1,-1,-1,-1,-1,-1,-1],"loss_changes":[1.2214549E5,2.8084316E4,0E0,3.251086E3,1.0572106E4,6.526328E2,0E0,2.9922588E3,1.3976367E2,4.3684375E2,0E0,1.688802E3,8.938672E1,1.0910034E2,1.044707E2,2.6820312E1,0E0,8.010581E2,1.6704984E2,5.404384E1,4.9099976E1,1.00938835E2,0E0,1.07965454E2,3.9558594E1,0E0,0E0,0E0,0E0,0E0,0E0,0E0,0E0,0E0,0E0,0E0,0E0,0E0,0E0,0E0,0E0],"parents":[2147483647,0,0,1,1,3,3,4,4,5,5,7,7,8,8,9,9,11,11,12,12,13,13,14,14,15,15,17,17,18,18,19,19,20,20,21,21,23,23,24,24],"right_children":[2,4,-1,6,8,10,-1,12,14,16,-1,18,20,22,24,26,-1,28,30,32,34,36,-1,38,40,-1,-1,-1,-1,-1,-1,-1,-1,-1,-1,-1,-1,-1,-1,-1,-1],"split_conditions":[3.460387E-1,1E0,6.180479E-2,1E0,1E0,1E0,6.1712146E-2,1E0,-2.313452E-1,1E0,6.478473E-2,1E0,4.5251872E-2,1E0,-7.361252E-2,1E0,6.653111E-2,1E0,4.5251872E-2,1E0,-7.172725E-2,1E0,6.142233E-2,4E0,1E0,-6.1927624E-2,-5.413226E-2,-5.6456007E-2,4.8289362E-2,1.7618358E-2,8.418698E-2,1.8059876E-2,6.1517883E-2,9.286013E-2,5.978207E-2,-1.5140556E-2,7.397373E-2,3.0899612E-2,1.0513723E-1,1.5027888E-2,6.2240776E-2],"split_indices":[27,26,0,21,14,22,0,24,6,17,0,23,27,21,31,23,0,20,27,21,31,23,0,7,10,0,0,0,0,0,0,0,0,0,0,0,0,0,0,0,0],"split_type":[0,0,0,0,0,0,0,0,0,0,0,0,0,0,0,0,0,0,0,0,0,0,0,0,0,0,0,0,0,0,0,0,0,0,0,0,0,0,0,0,0],"sum_hessian":[1.125609E5,6.580587E4,4.6755027E4,5.282914E4,1.2976727E4,5.2287566E4,5.4157526E2,5.670784E3,7.305942E3,5.218596E4,1.0160249E2,4.913738E3,7.5704663E2,3.3639545E2,6.9695464E3,5.212028E4,6.56818E1,4.525432E3,3.883056E2,2.8864136E2,4.6840527E2,1.84635E2,1.5176047E2,3.2376736E2,6.6457793E3,5.092806E4,1.1922213E3,4.335613E3,1.8981935E2,1.6220273E2,2.2610289E2,1.3619167E2,1.524497E2,2.3843216E2,2.2997311E2,1.450162E2,3.9618786E1,6.1451653E1,2.623157E2,4.5410816E1,6.600368E3],"tree_param":{"num_deleted":"0","num_feature":"34","num_nodes":"41","size_leaf_vector":"1"}},{"base_weights":[2.712745E-4,-8.659544E-1,6.1097164E-2,-1.1870626E0,4.3180838E-1,-1.212005E0,6.1001267E-2,-5.7088274E-1,1.2148285E0,-1.2168872E0,6.388175E-2,-8.5034883E-1,1.2289854E0,5.864071E-1,1.2454592E0,-1.2201072E0,6.558729E-2,-1.0200393E0,1.0838449E0,7.97763E-1,1.4933144E0,8.23288E-2,6.0706764E-2,1.5814886E0,1.2071787E0,-6.119294E-2,-5.3015947E-2,-5.5378806E-2,4.608613E-2,1.6760966E-2,8.122221E-2,1.7130375E-2,6.0795844E-2,8.2196884E-2,4.131575E-2,-1.4445886E-2,7.1842104E-2,3.9622366E-2,8.686824E-2,1.5245996E-2,6.0693927E-2],"categories":[],"categories_nodes":[],"categories_segments":[],"categories_sizes":[],"default_left":[0,0,0,0,0,0,0,0,0,0,0,0,0,0,0,0,0,0,0,0,0,0,0,0,0,0,0,0,0,0,0,0,0,0,0,0,0,0,0,0,0],"id":20,"left_children":[1,3,-1,5,7,9,-1,11,13,15,-1,17,19,21,23,25,-1,27,29,31,33,35,-1,37,39,-1,-1,-1,-1,-1,-1,-1,-1,-1,-1,-1,-1,-1,-1,-1,-1],"loss_changes":[1.1472596E5,2.6434844E4,0E0,3.0545469E3,9.879991E3,6.133203E2,0E0,2.7767354E3,1.3528027E2,4.106172E2,0E0,1.5690432E3,8.339331E1,1.0441082E2,8.474512E1,2.8773438E1,0E0,7.476196E2,1.5558786E2,5.366513E1,4.474701E1,9.307088E1,0E0,8.29613E1,3.6213867E1,0E0,0E0,0E0,0E0,0E0,0E0,0E0,0E0,0E0,0E0,0E0,0E0,0E0,0E0,0E0,0E0],"parents":[2147483647,0,0,1,1,3,3,4,4,5,5,7,7,8,8,9,9,11,11,12,12,13,13,14,14,15,15,17,17,18,18,19,19,20,20,21,21,23,23,24,24],"right_children":[2,4,-1,6,8,10,-1,12,14,16,-1,18,20,22,24,26,-1,28,30,32,34,36,-1,38,40,-1,-1,-1,-1,-1,-1,-1,-1,-1,-1,-1,-1,-1,-1,-1,-1],"split_conditions":[3.460387E-1,1E0,6.1097164E-2,1E0,1E0,1E0,6.1001267E-2,1E0,-2.313452E-1,1E0,6.388175E-2,1E0,4.5251872E-2,1E0,-2.2301084E-1,1E0,6.558729E-2,1E0,4.5251872E-2,1E0,-2.6365876E-1,1E0,6.0706764E-2,4.5251872E-2,1E0,-6.119294E-2,-5.3015947E-2,-5.5378806E-2,4.608613E-2,1.6760966E-2,8.122221E-2,1.7130375E-2,6.0795844E-2,8.2196884E-2,4.131575E-2,-1.4445886E-2,7.1842104E-2,3.9622366E-2,8.686824E-2,1.5245996E-2,6.0693927E-2],"split_indices":[27,26,0,21,14,22,0,24,6,17,0,23,27,21,6,23,0,20,27,21,29,23,0,27,10,0,0,0,0,0,0,0,0,0,0,0,0,0,0,0,0],"split_type":[0,0,0,0,0,0,0,0,0,0,0,0,0,0,0,0,0,0,0,0,0,0,0,0,0,0,0,0,0,0,0,0,0,0,0,0,0,0,0,0,0],"sum_hessian":[1.08409664E5,6.3432902E4,4.497676E4,5.085085E4,1.2582052E4,5.032983E4,5.210244E2,5.517248E3,7.064804E3,5.0231836E4,9.7992386E1,4.7761772E3,7.410709E2,3.2928702E2,6.735517E3,5.0168465E4,6.336867E1,4.3913853E3,3.8479193E2,2.831545E2,4.5791638E2,1.8325816E2,1.4602884E2,6.847156E2,6.050802E3,4.9011098E4,1.157369E3,4.202367E3,1.890179E2,1.6203073E2,2.227612E2,1.3644986E2,1.4670467E2,3.7236368E2,8.555269E1,1.4445302E2,3.8805145E1,1.1395617E2,5.707594E2,4.494203E1,6.0058594E3],"tree_param":{"num_deleted":"0","num_feature":"34","num_nodes":"41","size_leaf_vector":"1"}},{"base_weights":[2.7670135E-4,-8.5482234E-1,6.0439337E-2,-1.1735424E0,4.2371657E-1,-1.1981956E0,6.0339924E-2,-5.581312E-1,1.1952711E0,-1.2030277E0,6.304001E-2,-8.2616687E-1,1.2384946E0,1.2473772E0,8.026288E-1,-1.2062159E0,6.470458E-2,-9.842491E-1,1.1803836E0,2.0610924E-1,1.4143188E0,1.2139276E0,1.5733707E0,4.155599E-1,1.365968E0,-6.0509194E-2,-5.19385E-2,-5.347831E-2,6.377936E-2,3.1540684E-2,7.7536784E-2,-2.394345E-2,5.921427E-2,8.725898E-2,4.52861E-2,4.1465838E-2,6.1236747E-2,9.883659E-2,6.1038613E-2,7.7570806E-4,7.190619E-2,6.052162E-2,9.006454E-2],"categories":[],"categories_nodes":[],"categories_segments":[],"categories_sizes":[],"default_left":[0,0,0,0,0,0,0,0,0,0,0,0,0,0,0,0,0,0,0,0,0,0,0,0,0,0,0,0,0,0,0,0,0,0,0,0,0,0,0,0,0,0,0],"id":21,"left_children":[1,3,-1,5,7,9,-1,11,13,15,-1,17,19,21,23,25,-1,27,29,31,33,35,37,39,41,-1,-1,-1,-1,-1,-1,-1,-1,-1,-1,-1,-1,-1,-1,-1,-1,-1,-1],"loss_changes":[1.0783105E5,2.4901867E4,0E0,2.8719219E3,9.238518E3,5.7678125E2,0E0,2.5853687E3,1.3870801E2,3.8622656E2,0E0,1.4826487E3,1.2624451E2,6.380957E1,1.744953E2,3.08125E1,0E0,8.361968E2,6.853699E1,6.932244E1,9.86239E1,2.1723145E1,7.687488E1,1.9523422E2,1.9928894E1,0E0,0E0,0E0,0E0,0E0,0E0,0E0,0E0,0E0,0E0,0E0,0E0,0E0,0E0,0E0,0E0,0E0,0E0],"parents":[2147483647,0,0,1,1,3,3,4,4,5,5,7,7,8,8,9,9,11,11,12,12,13,13,14,14,15,15,17,17,18,18,19,19,20,20,21,21,22,22,23,23,24,24],"right_children":[2,4,-1,6,8,10,-1,12,14,16,-1,18,20,22,24,26,-1,28,30,32,34,36,38,40,42,-1,-1,-1,-1,-1,-1,-1,-1,-1,-1,-1,-1,-1,-1,-1,-1,-1,-1],"split_conditions":[3.460387E-1,1E0,6.0439337E-2,1E0,1E0,1E0,6.0339924E-2,1E0,-2.6365876E-1,1E0,6.304001E-2,1E0,-2.3135987E-1,4.8E1,1E0,1E0,6.470458E-2,1E0,4.5251872E-2,1E0,-2.084077E-1,-2.313452E-1,-7.164391E-2,1E0,5E0,-6.0509194E-2,-5.19385E-2,-5.347831E-2,6.377936E-2,3.1540684E-2,7.7536784E-2,-2.394345E-2,5.921427E-2,8.725898E-2,4.52861E-2,4.1465838E-2,6.1236747E-2,9.883659E-2,6.1038613E-2,7.7570806E-4,7.190619E-2,6.052162E-2,9.006454E-2],"split_indices":[27,26,0,21,14,22,0,23,29,17,0,20,6,9,23,23,0,22,27,21,6,6,31,20,10,0,0,0,0,0,0,0,0,0,0,0,0,0,0,0,0,0,0],"split_type":[0,0,0,0,0,0,0,0,0,0,0,0,0,0,0,0,0,0,0,0,0,0,0,0,0,0,0,0,0,0,0,0,0,0,0,0,0,0,0,0,0,0,0],"sum_hessian":[1.0434431E5,6.110726E4,4.3237047E4,4.891387E4,1.2193391E4,4.8412953E4,5.0091827E2,5.365614E3,6.827777E3,4.8318516E4,9.44392E1,4.6695166E3,6.960974E2,6.0259243E3,8.018529E2,4.825742E4,6.109285E1,4.328976E3,3.4054053E2,1.0161539E2,5.94482E2,5.46944E3,5.5648413E2,4.7631546E2,3.2553745E2,4.713422E4,1.1232021E3,4.171994E3,1.5698155E2,1.381868E2,2.0235373E2,6.006481E1,4.1550575E1,3.5870197E2,2.3578003E2,1.5161119E2,5.3178286E3,2.5740964E2,2.9907446E2,3.431026E2,1.3321286E2,2.426294E2,8.2908066E1],"tree_param":{"num_deleted":"0","num_feature":"34","num_nodes":"43","size_leaf_vector":"1"}},{"base_weights":[2.8507967E-4,-8.44347E-1,5.982696E-2,-1.1609145E0,4.1604018E-1,-1.1852976E0,5.9723776E-2,-5.462719E-1,1.1761985E0,-1.1900831E0,6.2253755E-2,-8.194062E-1,1.192933E0,1.2299904E0,7.778931E-1,-1.1932415E0,6.387689E-2,-9.8489404E-1,9.9471956E-1,7.812576E-1,1.4481379E0,1.1984378E0,1.5334698E0,3.987017E-1,1.3437468E0,-5.987185E-2,-5.0895322E-2,-5.2999925E-2,6.374141E-2,1.3818847E-2,7.607793E-2,1.7403161E-2,5.9804775E-2,8.004651E-2,3.9266333E-2,3.9892882E-2,6.050014E-2,9.4826005E-2,6.0318608E-2,-4.6172664E-3,5.98373E-2,5.9874017E-2,8.7144114E-2],"categories":[],"categories_nodes":[],"categories_segments":[],"categories_sizes":[],"default_left":[0,0,0,0,0,0,0,0,0,0,0,0,0,0,0,0,0,0,0,0,0,0,0,0,0,0,0,0,0,0,0,0,0,0,0,0,0,0,0,0,0,0,0],"id":22,"left_children":[1,3,-1,5,7,9,-1,11,13,15,-1,17,19,21,23,25,-1,27,29,31,33,35,37,39,41,-1,-1,-1,-1,-1,-1,-1,-1,-1,-1,-1,-1,-1,-1,-1,-1,-1,-1],"loss_changes":[1.0141563E5,2.3474578E4,0E0,2.7019883E3,8.640623E3,5.428008E2,0E0,2.4774233E3,1.4043066E2,3.6353906E2,0E0,1.3538062E3,7.32511E1,5.3816406E1,1.6851913E2,3.290625E1,0E0,7.022727E2,1.4232974E2,4.8662735E1,4.2885498E1,2.344629E1,6.2289307E1,1.855379E2,1.63443E1,0E0,0E0,0E0,0E0,0E0,0E0,0E0,0E0,0E0,0E0,0E0,0E0,0E0,0E0,0E0,0E0,0E0,0E0],"parents":[2147483647,0,0,1,1,3,3,4,4,5,5,7,7,8,8,9,9,11,11,12,12,13,13,14,14,15,15,17,17,18,18,19,19,20,20,21,21,22,22,23,23,24,24],"right_children":[2,4,-1,6,8,10,-1,12,14,16,-1,18,20,22,24,26,-1,28,30,32,34,36,38,40,42,-1,-1,-1,-1,-1,-1,-1,-1,-1,-1,-1,-1,-1,-1,-1,-1,-1,-1],"split_conditions":[3.460387E-1,1E0,5.982696E-2,1E0,1E0,1E0,5.9723776E-2,1E0,-2.6365876E-1,1E0,6.2253755E-2,1E0,4.5251872E-2,4.8E1,1E0,1E0,6.387689E-2,1E0,4.5251872E-2,1E0,-2.6365876E-1,-2.313452E-1,-7.164391E-2,1E0,5E0,-5.987185E-2,-5.0895322E-2,-5.2999925E-2,6.374141E-2,1.3818847E-2,7.607793E-2,1.7403161E-2,5.9804775E-2,8.004651E-2,3.9266333E-2,3.9892882E-2,6.050014E-2,9.4826005E-2,6.0318608E-2,-4.6172664E-3,5.98373E-2,5.9874017E-2,8.7144114E-2],"split_indices":[27,26,0,21,14,22,0,24,29,17,0,23,27,9,23,23,0,22,27,21,29,6,31,21,10,0,0,0,0,0,0,0,0,0,0,0,0,0,0,0,0,0,0],"split_type":[0,0,0,0,0,0,0,0,0,0,0,0,0,0,0,0,0,0,0,0,0,0,0,0,0,0,0,0,0,0,0,0,0,0,0,0,0,0,0,0,0,0,0],"sum_hessian":[1.00370305E5,5.883167E4,4.1538637E4,4.7021504E4,1.1810166E4,4.6540215E4,4.8128912E2,5.2121704E3,6.5979956E3,4.644926E4,9.095138E1,4.505181E3,7.069895E2,5.8111064E3,7.8688916E2,4.6390402E4,5.8859825E1,4.128985E3,3.7619632E2,2.721084E2,4.3488107E2,5.2683115E3,5.42795E2,4.7217712E2,3.1471204E2,4.5300617E4,1.0897861E3,3.9966814E3,1.3230333E2,1.5981453E2,2.1638177E2,1.3400877E2,1.3809964E2,3.522618E2,8.261927E1,1.4979631E2,5.118515E3,2.5498521E2,2.8780975E2,2.928605E2,1.793166E2,2.3323965E2,8.147238E1],"tree_param":{"num_deleted":"0","num_feature":"34","num_nodes":"43","size_leaf_vector":"1"}},{"base_weights":[2.9508703E-4,-8.344731E-1,5.9256148E-2,-1.1491E0,4.0873283E-1,-1.1732299E0,5.9148956E-2,-5.347302E-1,1.1584251E0,-1.1779721E0,6.1517924E-2,-8.027836E-1,1.1619145E0,1.2133665E0,7.571545E-1,-1.1811029E0,6.309886E-2,-9.667935E-1,9.5367026E-1,3.4765184E-1,1.2914954E0,1.1836302E0,1.4957038E0,3.8524404E-1,1.3226527E0,-5.9276856E-2,-4.988233E-2,-5.2139927E-2,6.442145E-2,-1.7512849E-2,6.1840147E-2,-1.5016784E-2,5.803556E-2,7.881517E-2,4.471124E-2,4.395945E-2,6.0047787E-2,9.111428E-2,5.9634496E-2,-6.1289305E-5,7.058452E-2,5.9266873E-2,8.439819E-2],"categories":[],"categories_nodes":[],"categories_segments":[],"categories_sizes":[],"default_left":[0,0,0,0,0,0,0,0,0,0,0,0,0,0,0,0,0,0,0,0,0,0,0,0,0,0,0,0,0,0,0,0,0,0,0,0,0,0,0,0,0,0,0],"id":23,"left_children":[1,3,-1,5,7,9,-1,11,13,15,-1,17,19,21,23,25,-1,27,29,31,33,35,37,39,41,-1,-1,-1,-1,-1,-1,-1,-1,-1,-1,-1,-1,-1,-1,-1,-1,-1,-1],"loss_changes":[9.5439164E4,2.214339E4,0E0,2.5436719E3,8.0879854E3,5.111172E2,0E0,2.3037334E3,1.3955176E2,3.4240625E2,0E0,1.2607307E3,7.248535E1,4.5268555E1,1.6143054E2,3.5070312E1,0E0,6.8701245E2,1.3850027E2,5.106792E1,6.602161E1,2.570459E1,5.028076E1,1.8482474E2,1.3302734E1,0E0,0E0,0E0,0E0,0E0,0E0,0E0,0E0,0E0,0E0,0E0,0E0,0E0,0E0,0E0,0E0,0E0,0E0],"parents":[2147483647,0,0,1,1,3,3,4,4,5,5,7,7,8,8,9,9,11,11,12,12,13,13,14,14,15,15,17,17,18,18,19,19,20,20,21,21,22,22,23,23,24,24],"right_children":[2,4,-1,6,8,10,-1,12,14,16,-1,18,20,22,24,26,-1,28,30,32,34,36,38,40,42,-1,-1,-1,-1,-1,-1,-1,-1,-1,-1,-1,-1,-1,-1,-1,-1,-1,-1],"split_conditions":[3.460387E-1,1E0,5.9256148E-2,1E0,1E0,1E0,5.9148956E-2,1E0,-2.6365876E-1,1E0,6.1517924E-2,1E0,-2.313452E-1,4.8E1,1E0,1E0,6.309886E-2,1E0,-2.3135987E-1,1E0,-2.084077E-1,3.2310688E-1,-7.164391E-2,1E0,5E0,-5.9276856E-2,-4.988233E-2,-5.2139927E-2,6.442145E-2,-1.7512849E-2,6.1840147E-2,-1.5016784E-2,5.803556E-2,7.881517E-2,4.471124E-2,4.395945E-2,6.0047787E-2,9.111428E-2,5.9634496E-2,-6.1289305E-5,7.058452E-2,5.9266873E-2,8.439819E-2],"split_indices":[27,26,0,21,14,22,0,24,29,17,0,23,6,9,23,23,0,17,6,21,6,30,31,20,10,0,0,0,0,0,0,0,0,0,0,0,0,0,0,0,0,0,0],"split_type":[0,0,0,0,0,0,0,0,0,0,0,0,0,0,0,0,0,0,0,0,0,0,0,0,0,0,0,0,0,0,0,0,0,0,0,0,0,0,0,0,0,0,0],"sum_hessian":[9.649315E4,5.6609402E4,3.9883746E4,4.517638E4,1.1433026E4,4.4714215E4,4.62162E2,5.062422E3,6.3706045E3,4.462668E4,8.753583E1,4.3721855E3,6.90236E2,5.601615E3,7.6898926E2,4.4570004E4,5.6674046E1,3.999207E3,3.7297864E2,9.526856E1,5.9496747E2,5.0725547E3,5.2906024E2,4.6491226E2,3.04077E2,4.3512832E4,1.0571741E3,3.8693408E3,1.2986618E2,6.649737E1,3.0648126E2,5.3367023E1,4.1901543E1,3.4480496E2,2.5016249E2,2.7591876E2,4.796636E3,2.522148E2,2.768454E2,3.384721E2,1.26440155E2,2.2408957E2,7.998742E1],"tree_param":{"num_deleted":"0","num_feature":"34","num_nodes":"43","size_leaf_vector":"1"}},{"base_weights":[3.0314986E-4,-8.250437E-1,5.872347E-2,-1.1380277E0,4.014787E-1,-1.1619203E0,5.861199E-2,-5.233865E-1,1.1407467E0,-1.1666219E0,6.0828008E-2,-7.866302E-1,1.1292487E0,1.1974742E0,7.3392606E-1,-1.1697272E0,6.236579E-2,-9.491056E-1,9.154478E-1,7.240523E-1,1.3838861E0,6.574529E-1,1.2133044E0,3.695991E-1,1.3025959E0,-5.87206E-2,-4.8895936E-2,-5.135117E-2,6.3111536E-2,1.1220801E-2,7.155693E-2,1.4584138E-2,5.8662336E-2,7.600916E-2,3.0982152E-2,1.3655501E-2,6.58031E-2,7.461248E-2,5.8108002E-2,-5.1381327E-3,5.9010763E-2,5.8696587E-2,8.1813164E-2],"categories":[],"categories_nodes":[],"categories_segments":[],"categories_sizes":[],"default_left":[0,0,0,0,0,0,0,0,0,0,0,0,0,0,0,0,0,0,0,0,0,0,0,0,0,0,0,0,0,0,0,0,0,0,0,0,0,0,0,0,0,0,0],"id":24,"left_children":[1,3,-1,5,7,9,-1,11,13,15,-1,17,19,21,23,25,-1,27,29,31,33,35,37,39,41,-1,-1,-1,-1,-1,-1,-1,-1,-1,-1,-1,-1,-1,-1,-1,-1,-1,-1],"loss_changes":[8.986052E4,2.0903324E4,0E0,2.395961E3,7.56994E3,4.8157812E2,0E0,2.1407578E3,1.411211E2,3.226797E2,0E0,1.1743838E3,6.8772095E1,4.5351562E1,1.5605936E2,3.7308594E1,0E0,6.688296E2,1.3163184E2,5.075055E1,4.2200623E1,3.911071E1,7.307324E1,1.7699393E2,1.0728668E1,0E0,0E0,0E0,0E0,0E0,0E0,0E0,0E0,0E0,0E0,0E0,0E0,0E0,0E0,0E0,0E0,0E0,0E0],"parents":[2147483647,0,0,1,1,3,3,4,4,5,5,7,7,8,8,9,9,11,11,12,12,13,13,14,14,15,15,17,17,18,18,19,19,20,20,21,21,22,22,23,23,24,24],"right_children":[2,4,-1,6,8,10,-1,12,14,16,-1,18,20,22,24,26,-1,28,30,32,34,36,38,40,42,-1,-1,-1,-1,-1,-1,-1,-1,-1,-1,-1,-1,-1,-1,-1,-1,-1,-1],"split_conditions":[3.460387E-1,1E0,5.872347E-2,1E0,1E0,1E0,5.861199E-2,1E0,-2.6365876E-1,1E0,6.0828008E-2,1E0,4.5251872E-2,-2.313452E-1,1E0,1E0,6.236579E-2,1E0,4.5251872E-2,1E0,9.503337E-2,1E0,-2.084077E-1,1E0,5E0,-5.87206E-2,-4.8895936E-2,-5.135117E-2,6.3111536E-2,1.1220801E-2,7.155693E-2,1.4584138E-2,5.8662336E-2,7.600916E-2,3.0982152E-2,1.3655501E-2,6.58031E-2,7.461248E-2,5.8108002E-2,-5.1381327E-3,5.9010763E-2,5.8696587E-2,8.1813164E-2],"split_indices":[27,26,0,21,14,22,0,24,29,17,0,23,27,6,23,23,0,21,27,21,29,23,6,21,10,0,0,0,0,0,0,0,0,0,0,0,0,0,0,0,0,0,0],"split_type":[0,0,0,0,0,0,0,0,0,0,0,0,0,0,0,0,0,0,0,0,0,0,0,0,0,0,0,0,0,0,0,0,0,0,0,0,0,0,0,0,0,0,0],"sum_hessian":[9.27243E4,5.4450297E4,3.8273996E4,4.3380527E4,1.106977E4,4.2936973E4,4.4355627E2,4.917721E3,6.152049E3,4.2852773E4,8.4198135E1,4.242473E3,6.75248E2,5.3974766E3,7.545723E2,4.2798234E4,5.4539062E1,3.873192E3,3.6928134E2,2.6206915E2,4.1317883E2,1.5492728E2,5.2425493E3,4.609242E2,2.9364813E2,4.177283E4,1.0254071E3,3.74188E3,1.3131194E2,1.5842506E2,2.1085626E2,1.343758E2,1.27693344E2,3.498046E2,6.3374237E1,9.8727684E1,5.61996E1,8.0791986E2,4.4346294E3,2.9177466E2,1.6914952E2,2.151885E2,7.845963E1],"tree_param":{"num_deleted":"0","num_feature":"34","num_nodes":"43","size_leaf_vector":"1"}},{"base_weights":[3.1412634E-4,-8.161414E-1,5.8225807E-2,-1.1276343E0,3.9462528E-1,-1.151304E0,5.810978E-2,-5.124005E-1,1.1243733E0,-1.1559677E0,6.0179997E-2,-7.7082294E-1,1.099775E0,4.5927417E-1,1.1601847E0,-1.1590492E0,6.167352E-2,-9.3197703E-1,8.7737435E-1,3.0189273E-1,1.2282039E0,-2.9482504E-2,5.8246966E-2,1.1970026E0,7.7376074E-1,-5.819986E-2,-4.793295E-2,-5.1330872E-2,4.6799816E-2,-1.8297615E-2,5.7648856E-2,-1.5507305E-2,5.6871545E-2,7.531977E-2,4.202054E-2,-1.7701386E-2,6.97194E-2,7.247062E-2,5.7384312E-2,1.965594E-2,6.548264E-2],"categories":[],"categories_nodes":[],"categories_segments":[],"categories_sizes":[],"default_left":[0,0,0,0,0,0,0,0,0,0,0,0,0,0,0,0,0,0,0,0,0,0,0,0,0,0,0,0,0,0,0,0,0,0,0,0,0,0,0,0,0],"id":25,"left_children":[1,3,-1,5,7,9,-1,11,13,15,-1,17,19,21,23,25,-1,27,29,31,33,35,-1,37,39,-1,-1,-1,-1,-1,-1,-1,-1,-1,-1,-1,-1,-1,-1,-1,-1],"loss_changes":[8.46528E4,1.9743219E4,0E0,2.2580156E3,7.091152E3,4.539922E2,0E0,1.9909629E3,1.4086719E2,3.0426562E2,0E0,1.0944724E3,6.7293335E1,1.05219955E2,7.92124E1,3.961328E1,0E0,6.641218E2,1.262641E2,4.7848267E1,6.005841E1,8.420725E1,0E0,6.233008E1,1.00011444E2,0E0,0E0,0E0,0E0,0E0,0E0,0E0,0E0,0E0,0E0,0E0,0E0,0E0,0E0,0E0,0E0],"parents":[2147483647,0,0,1,1,3,3,4,4,5,5,7,7,8,8,9,9,11,11,12,12,13,13,14,14,15,15,17,17,18,18,19,19,20,20,21,21,23,23,24,24],"right_children":[2,4,-1,6,8,10,-1,12,14,16,-1,18,20,22,24,26,-1,28,30,32,34,36,-1,38,40,-1,-1,-1,-1,-1,-1,-1,-1,-1,-1,-1,-1,-1,-1,-1,-1],"split_conditions":[3.460387E-1,1E0,5.8225807E-2,1E0,1E0,1E0,5.810978E-2,1E0,-2.313452E-1,1E0,6.0179997E-2,1E0,-2.313452E-1,1E0,9.503337E-2,1E0,6.167352E-2,1E0,-2.3135987E-1,1E0,-2.084077E-1,1E0,5.8246966E-2,-2.084077E-1,1E0,-5.819986E-2,-4.793295E-2,-5.1330872E-2,4.6799816E-2,-1.8297615E-2,5.7648856E-2,-1.5507305E-2,5.6871545E-2,7.531977E-2,4.202054E-2,-1.7701386E-2,6.97194E-2,7.247062E-2,5.7384312E-2,1.965594E-2,6.548264E-2],"split_indices":[27,26,0,21,14,22,0,24,6,17,0,23,6,21,29,23,0,20,6,21,6,24,0,6,23,0,0,0,0,0,0,0,0,0,0,0,0,0,0,0,0],"split_type":[0,0,0,0,0,0,0,0,0,0,0,0,0,0,0,0,0,0,0,0,0,0,0,0,0,0,0,0,0,0,0,0,0,0,0,0,0,0,0,0,0],"sum_hessian":[8.905754E4,5.2346918E4,3.6710625E4,4.1635465E4,1.0711452E4,4.120998E4,4.2548608E2,4.7757847E3,5.935668E3,4.1129035E4,8.0942764E1,4.1164614E3,6.5932324E2,3.0397546E2,5.6316924E3,4.107658E4,5.245767E1,3.7502148E3,3.6624637E2,9.1876785E1,5.674465E2,1.8015501E2,1.2382045E2,5.1398755E3,4.9181683E2,4.0082062E4,9.9451654E2,3.5698022E3,1.8041264E2,6.639423E1,2.9985214E2,5.3394016E1,3.8482765E1,3.287362E2,2.3871025E2,1.4732608E2,3.2828926E1,8.354598E2,4.3044155E3,2.8857602E2,2.0324081E2],"tree_param":{"num_deleted":"0","num_feature":"34","num_nodes":"41","size_leaf_vector":"1"}},{"base_weights":[3.201469E-4,-8.075257E-1,5.7760388E-2,-1.1178627E0,3.875835E-1,-1.1413225E0,5.7639528E-2,-5.010267E-1,1.1080953E0,-1.1459507E0,5.9570312E-2,-7.544827E-1,1.0683252E0,1.1683229E0,6.9032073E-1,-1.14901E0,6.1018348E-2,-9.139275E-1,8.4185916E-1,6.698621E-1,1.3223456E0,7.5224406E-1,1.1924574E0,3.3765513E-1,1.2684017E0,-5.7711717E-2,-4.6990536E-2,-4.975965E-2,6.362589E-2,8.895898E-3,6.729423E-2,1.2034674E-2,5.7674225E-2,7.422436E-2,3.285586E-2,1.6756117E-2,7.012574E-2,7.129475E-2,5.728903E-2,-1.8450198E-3,6.892931E-2,5.7605695E-2,7.7635035E-2],"categories":[],"categories_nodes":[],"categories_segments":[],"categories_sizes":[],"default_left":[0,0,0,0,0,0,0,0,0,0,0,0,0,0,0,0,0,0,0,0,0,0,0,0,0,0,0,0,0,0,0,0,0,0,0,0,0,0,0,0,0,0,0],"id":26,"left_children":[1,3,-1,5,7,9,-1,11,13,15,-1,17,19,21,23,25,-1,27,29,31,33,35,37,39,41,-1,-1,-1,-1,-1,-1,-1,-1,-1,-1,-1,-1,-1,-1,-1,-1,-1,-1],"loss_changes":[7.97789E4,1.8661625E4,0E0,2.1290586E3,6.6418066E3,4.281953E2,0E0,1.8485294E3,1.4333203E2,2.8704688E2,0E0,1.0188762E3,6.453424E1,4.936621E1,1.4722037E2,4.1984375E1,0E0,6.4753516E2,1.2149106E2,5.2369072E1,4.148712E1,7.469734E1,4.9895508E1,1.7595938E2,7.2714844E0,0E0,0E0,0E0,0E0,0E0,0E0,0E0,0E0,0E0,0E0,0E0,0E0,0E0,0E0,0E0,0E0,0E0,0E0],"parents":[2147483647,0,0,1,1,3,3,4,4,5,5,7,7,8,8,9,9,11,11,12,12,13,13,14,14,15,15,17,17,18,18,19,19,20,20,21,21,22,22,23,23,24,24],"right_children":[2,4,-1,6,8,10,-1,12,14,16,-1,18,20,22,24,26,-1,28,30,32,34,36,38,40,42,-1,-1,-1,-1,-1,-1,-1,-1,-1,-1,-1,-1,-1,-1,-1,-1,-1,-1],"split_conditions":[3.460387E-1,1E0,5.7760388E-2,1E0,1E0,1E0,5.7639528E-2,1E0,-2.6365876E-1,1E0,5.9570312E-2,1E0,4.5251872E-2,3.2310688E-1,1E0,1E0,6.1018348E-2,1E0,4.5251872E-2,1E0,-2.6365876E-1,1E0,-2.084077E-1,1E0,5E0,-5.7711717E-2,-4.6990536E-2,-4.975965E-2,6.362589E-2,8.895898E-3,6.729423E-2,1.2034674E-2,5.7674225E-2,7.422436E-2,3.285586E-2,1.6756117E-2,7.012574E-2,7.129475E-2,5.728903E-2,-1.8450198E-3,6.892931E-2,5.7605695E-2,7.7635035E-2],"split_indices":[27,26,0,21,14,22,0,24,29,17,0,23,27,30,23,23,0,22,27,21,29,23,6,20,10,0,0,0,0,0,0,0,0,0,0,0,0,0,0,0,0,0,0],"split_type":[0,0,0,0,0,0,0,0,0,0,0,0,0,0,0,0,0,0,0,0,0,0,0,0,0,0,0,0,0,0,0,0,0,0,0,0,0,0,0,0,0,0,0],"sum_hessian":[8.550856E4,5.031408E4,3.5194484E4,3.9942242E4,1.0371837E4,3.953428E4,4.0796106E2,4.6443027E3,5.7275337E3,3.9456508E4,7.7773155E1,3.9989734E3,6.4532947E2,5.004302E3,7.23232E2,3.940608E4,5.0431942E1,3.6362112E3,3.627622E2,2.5265128E2,3.926782E2,2.7612283E2,4.7281787E3,4.501788E2,2.7305322E2,3.844155E4,9.645249E2,3.5064297E3,1.2978163E2,1.5713062E2,2.0563159E2,1.3465529E2,1.17996E2,3.1473395E2,7.794425E1,1.6914114E2,1.069817E2,7.8295667E2,3.9452222E3,3.3176517E2,1.1841365E2,1.9737338E2,7.567983E1],"tree_param":{"num_deleted":"0","num_feature":"34","num_nodes":"43","size_leaf_vector":"1"}},{"base_weights":[3.3226763E-4,-7.993524E-1,5.7324685E-2,-1.1086609E0,3.8094E-1,-1.1319228E0,5.7198722E-2,-4.904298E-1,1.0921723E0,-1.1365176E0,5.8995754E-2,-7.392484E-1,1.0400106E0,1.1543577E0,6.691329E-1,-1.1395564E0,6.0397007E-2,-8.652157E-1,6.0975224E-2,2.59973E-1,1.1670539E0,7.266417E-1,1.1797763E0,2.502391E-1,5.76575E-2,-5.724603E-2,-4.5728616E-2,-4.8284248E-2,5.2142728E-2,-1.588161E-2,5.5857666E-2,7.1961604E-2,3.942488E-2,1.5984464E-2,6.9039874E-2,6.971136E-2,5.6813445E-2,-1.0700407E-2,7.744573E-2],"categories":[],"categories_nodes":[],"categories_segments":[],"categories_sizes":[],"default_left":[0,0,0,0,0,0,0,0,0,0,0,0,0,0,0,0,0,0,0,0,0,0,0,0,0,0,0,0,0,0,0,0,0,0,0,0,0,0,0],"id":27,"left_children":[1,3,-1,5,7,9,-1,11,13,15,-1,17,19,21,23,25,-1,27,-1,29,31,33,35,37,-1,-1,-1,-1,-1,-1,-1,-1,-1,-1,-1,-1,-1,-1,-1],"loss_changes":[7.521982E4,1.7648059E4,0E0,2.0083633E3,6.2217197E3,4.040625E2,0E0,1.7189324E3,1.4463379E2,2.709336E2,0E0,9.5879004E2,6.2266113E1,5.151953E1,1.4381674E2,4.4558594E1,0E0,7.0026465E2,0E0,4.477471E1,5.477881E1,7.219287E1,4.0828125E1,2.308121E2,0E0,0E0,0E0,0E0,0E0,0E0,0E0,0E0,0E0,0E0,0E0,0E0,0E0,0E0,0E0],"parents":[2147483647,0,0,1,1,3,3,4,4,5,5,7,7,8,8,9,9,11,11,12,12,13,13,14,14,15,15,17,17,19,19,20,20,21,21,22,22,23,23],"right_children":[2,4,-1,6,8,10,-1,12,14,16,-1,18,20,22,24,26,-1,28,-1,30,32,34,36,38,-1,-1,-1,-1,-1,-1,-1,-1,-1,-1,-1,-1,-1,-1,-1],"split_conditions":[3.460387E-1,1E0,5.7324685E-2,1E0,1E0,1E0,5.7198722E-2,1E0,-2.6365876E-1,1E0,5.8995754E-2,1E0,-2.313452E-1,3.2310688E-1,1E0,1E0,6.0397007E-2,1E0,6.0975224E-2,1E0,-2.084077E-1,1E0,-2.084077E-1,1E0,5.76575E-2,-5.724603E-2,-4.5728616E-2,-4.8284248E-2,5.2142728E-2,-1.588161E-2,5.5857666E-2,7.1961604E-2,3.942488E-2,1.5984464E-2,6.9039874E-2,6.971136E-2,5.6813445E-2,-1.0700407E-2,7.744573E-2],"split_indices":[27,26,0,21,14,22,0,24,29,17,0,21,6,30,21,24,0,20,0,21,6,23,6,20,0,0,0,0,0,0,0,0,0,0,0,0,0,0,0],"split_type":[0,0,0,0,0,0,0,0,0,0,0,0,0,0,0,0,0,0,0,0,0,0,0,0,0,0,0,0,0,0,0,0,0,0,0,0,0,0,0],"sum_hessian":[8.2064836E4,4.8338816E4,3.372602E4,3.830154E4,1.0037274E4,3.7910555E4,3.9098703E2,4.51096E3,5.5263145E3,3.7835863E4,7.4691826E1,3.8805742E3,6.303858E2,4.816567E3,7.097475E2,3.77874E4,4.8463394E1,3.6466187E3,2.3395558E2,8.871685E1,5.4166895E2,2.7184558E2,4.544721E3,3.8128256E2,3.2846494E2,3.690343E4,8.839668E2,3.46468E3,1.819385E2,5.3377934E1,3.5338917E1,3.1347897E2,2.2819E2,1.6850609E2,1.03339485E2,7.6128033E2,3.7834412E3,2.8149106E2,9.979151E1],"tree_param":{"num_deleted":"0","num_feature":"34","num_nodes":"39","size_leaf_vector":"1"}},{"base_weights":[3.4447212E-4,-7.915634E-1,5.6916457E-2,-1.0999765E0,3.7454322E-1,-1.1230513E0,5.6785073E-2,-4.8003373E-1,1.0772641E0,-1.1276149E0,5.8453422E-2,-7.2567886E-1,1.0519342E0,3.8447815E-1,1.116679E0,-1.1306344E0,5.9806563E-2,-8.8518286E-1,1.0970496E0,1.08151436E-1,1.2227769E0,-8.749035E-2,5.692559E-2,1.157456E0,7.1054494E-1,-5.682558E-2,-4.495831E-2,-4.857206E-2,6.18427E-2,2.8305849E-2,7.308762E-2,-2.402669E-2,5.644865E-2,7.7110976E-2,3.6066283E-2,-1.9550635E-2,6.587111E-2,7.102503E-2,5.6242585E-2,1.700209E-2,6.355583E-2],"categories":[],"categories_nodes":[],"categories_segments":[],"categories_sizes":[],"default_left":[0,0,0,0,0,0,0,0,0,0,0,0,0,0,0,0,0,0,0,0,0,0,0,0,0,0,0,0,0,0,0,0,0,0,0,0,0,0,0,0,0],"id":28,"left_children":[1,3,-1,5,7,9,-1,11,13,15,-1,17,19,21,23,25,-1,27,29,31,33,35,-1,37,39,-1,-1,-1,-1,-1,-1,-1,-1,-1,-1,-1,-1,-1,-1,-1,-1],"loss_changes":[7.095107E4,1.6696791E4,0E0,1.8953125E3,5.832293E3,3.8145312E2,0E0,1.6500812E3,1.4509375E2,2.5583594E2,0E0,1.0992703E3,9.758667E1,1.0273739E2,8.267676E1,4.825E1,0E0,6.371438E2,5.81192E1,5.7024433E1,8.107251E1,7.654963E1,0E0,3.7684082E1,9.565175E1,0E0,0E0,0E0,0E0,0E0,0E0,0E0,0E0,0E0,0E0,0E0,0E0,0E0,0E0,0E0,0E0],"parents":[2147483647,0,0,1,1,3,3,4,4,5,5,7,7,8,8,9,9,11,11,12,12,13,13,14,14,15,15,17,17,18,18,19,19,20,20,21,21,23,23,24,24],"right_children":[2,4,-1,6,8,10,-1,12,14,16,-1,18,20,22,24,26,-1,28,30,32,34,36,-1,38,40,-1,-1,-1,-1,-1,-1,-1,-1,-1,-1,-1,-1,-1,-1,-1,-1],"split_conditions":[3.460387E-1,1E0,5.6916457E-2,1E0,1E0,1E0,5.6785073E-2,1E0,-2.313452E-1,1E0,5.8453422E-2,1E0,-2.3135987E-1,1E0,9.503337E-2,1E0,5.9806563E-2,1E0,4.5251872E-2,1E0,-2.084077E-1,1E0,5.692559E-2,-2.2345069E-1,1E0,-5.682558E-2,-4.495831E-2,-4.857206E-2,6.18427E-2,2.8305849E-2,7.308762E-2,-2.402669E-2,5.644865E-2,7.7110976E-2,3.6066283E-2,-1.9550635E-2,6.587111E-2,7.102503E-2,5.6242585E-2,1.700209E-2,6.355583E-2],"split_indices":[27,26,0,21,14,22,0,23,6,17,0,20,6,21,29,23,0,22,27,21,6,24,0,6,23,0,0,0,0,0,0,0,0,0,0,0,0,0,0,0,0],"split_type":[0,0,0,0,0,0,0,0,0,0,0,0,0,0,0,0,0,0,0,0,0,0,0,0,0,0,0,0,0,0,0,0,0,0,0,0,0,0,0,0,0],"sum_hessian":[7.872939E4,4.6423926E4,3.2305465E4,3.671386E4,9.710063E3,3.6339293E4,3.7456592E2,4.3817485E3,5.3283154E3,3.6267594E4,7.170059E1,3.776696E3,6.050523E2,2.874055E2,5.0409097E3,3.622104E4,4.6553032E1,3.4732703E3,3.0342587E2,9.2988884E1,5.120634E2,1.7730797E2,1.1009752E2,4.579286E3,4.6162366E2,3.5320312E4,9.0072864E2,3.3381216E3,1.3514859E2,1.2459432E2,1.7883156E2,5.9313416E1,3.3675465E1,3.1153125E2,2.0053217E2,1.4640071E2,3.0907248E1,5.0031128E2,4.0789749E3,2.788968E2,1.8272687E2],"tree_param":{"num_deleted":"0","num_feature":"34","num_nodes":"41","size_leaf_vector":"1"}},{"base_weights":[3.5494758E-4,-7.840634E-1,5.6533623E-2,-1.0917783E0,3.6820388E-1,-1.1146762E0,5.6396525E-2,-4.699303E-1,1.06223E0,-1.1192105E0,5.794073E-2,-7.14614E-1,1.0089232E0,1.1281836E0,6.2918246E-1,-1.1222122E0,5.92444E-2,-8.728746E-1,7.8657E-1,6.286856E-1,1.2562597E0,6.6849077E-1,1.1567154E0,2.1603233E-1,5.6899775E-2,-5.6420323E-2,-4.4066723E-2,-4.78291E-2,6.4245336E-2,6.735383E-3,6.4158686E-2,1.0828341E-2,5.6652397E-2,7.119046E-2,2.959967E-2,1.3216457E-2,6.734458E-2,6.692185E-2,5.5934764E-2,-1.1286881E-2,7.434382E-2],"categories":[],"categories_nodes":[],"categories_segments":[],"categories_sizes":[],"default_left":[0,0,0,0,0,0,0,0,0,0,0,0,0,0,0,0,0,0,0,0,0,0,0,0,0,0,0,0,0,0,0,0,0,0,0,0,0,0,0,0,0],"id":29,"left_children":[1,3,-1,5,7,9,-1,11,13,15,-1,17,19,21,23,25,-1,27,29,31,33,35,37,39,-1,-1,-1,-1,-1,-1,-1,-1,-1,-1,-1,-1,-1,-1,-1,-1,-1],"loss_changes":[6.694864E4,1.5805131E4,0E0,1.789332E3,5.465749E3,3.6025E2,0E0,1.540978E3,1.460918E2,2.416875E2,0E0,8.685354E2,5.6080933E1,5.7714844E1,1.4303973E2,5.079297E1,0E0,5.9818384E2,1.1277248E2,4.9708138E1,3.982312E1,7.1745995E1,2.7501953E1,2.1221667E2,0E0,0E0,0E0,0E0,0E0,0E0,0E0,0E0,0E0,0E0,0E0,0E0,0E0,0E0,0E0,0E0,0E0],"parents":[2147483647,0,0,1,1,3,3,4,4,5,5,7,7,8,8,9,9,11,11,12,12,13,13,14,14,15,15,17,17,18,18,19,19,20,20,21,21,22,22,23,23],"right_children":[2,4,-1,6,8,10,-1,12,14,16,-1,18,20,22,24,26,-1,28,30,32,34,36,38,40,-1,-1,-1,-1,-1,-1,-1,-1,-1,-1,-1,-1,-1,-1,-1,-1,-1],"split_conditions":[3.460387E-1,1E0,5.6533623E-2,1E0,1E0,1E0,5.6396525E-2,1E0,-2.6365876E-1,1E0,5.794073E-2,1E0,4.5251872E-2,3.2310688E-1,1E0,1E0,5.92444E-2,1E0,4.5251872E-2,1E0,-2.6365876E-1,1E0,-2.084077E-1,1E0,5.6899775E-2,-5.6420323E-2,-4.4066723E-2,-4.78291E-2,6.4245336E-2,6.735383E-3,6.4158686E-2,1.0828341E-2,5.6652397E-2,7.119046E-2,2.959967E-2,1.3216457E-2,6.734458E-2,6.692185E-2,5.5934764E-2,-1.1286881E-2,7.434382E-2],"split_indices":[27,26,0,21,14,22,0,24,29,17,0,23,27,30,21,23,0,17,27,21,29,23,6,20,0,0,0,0,0,0,0,0,0,0,0,0,0,0,0,0,0],"split_type":[0,0,0,0,0,0,0,0,0,0,0,0,0,0,0,0,0,0,0,0,0,0,0,0,0,0,0,0,0,0,0,0,0,0,0,0,0,0,0,0,0],"sum_hessian":[7.55061E4,4.4573363E4,3.093274E4,3.5178844E4,9.394518E3,3.482015E4,3.5869733E2,4.255602E3,5.1389155E3,3.4751348E4,6.880056E1,3.6518945E3,6.037074E2,4.4583047E3,6.8061053E2,3.4706645E4,4.470141E1,3.3039932E3,3.4790128E2,2.3932611E2,3.643813E2,2.6196988E2,4.196335E3,3.7640152E2,3.0420898E2,3.383293E4,8.737158E2,3.181143E3,1.2285017E2,1.5098433E2,1.9691696E2,1.3249374E2,1.0683237E2,2.9007227E2,7.4309044E1,1.6503743E2,9.693245E1,7.201386E2,3.4761963E3,2.7991873E2,9.6482796E1],"tree_param":{"num_deleted":"0","num_feature":"34","num_nodes":"41","size_leaf_vector":"1"}},{"base_weights":[3.6885552E-4,-7.768576E-1,5.6174334E-2,-1.0840219E0,3.6205545E-1,-1.1067522E0,5.6031197E-2,-4.59872E-1,1.0480385E0,-1.1112589E0,5.7455298E-2,-7.000432E-1,9.818222E-1,1.1154324E0,6.12487E-1,-1.1142439E0,5.8708187E-2,-8.2475275E-1,6.01888E-2,1.0897925E0,1.2823711E-1,6.452682E-1,1.1453768E0,2.0706794E-1,5.6502044E-2,-5.6028157E-2,-4.2711716E-2,-4.6297766E-2,4.8254177E-2,3.6500286E-2,6.546833E-2,-2.0026116E-2,7.130577E-2,1.2598368E-2,6.6341974E-2,2.497243E-2,5.7866354E-2,-1.0741952E-2,7.23524E-2],"categories":[],"categories_nodes":[],"categories_segments":[],"categories_sizes":[],"default_left":[0,0,0,0,0,0,0,0,0,0,0,0,0,0,0,0,0,0,0,0,0,0,0,0,0,0,0,0,0,0,0,0,0,0,0,0,0,0,0],"id":30,"left_children":[1,3,-1,5,7,9,-1,11,13,15,-1,17,19,21,23,25,-1,27,-1,29,31,33,35,37,-1,-1,-1,-1,-1,-1,-1,-1,-1,-1,-1,-1,-1,-1,-1],"loss_changes":[6.3193887E4,1.4968141E4,0E0,1.6898945E3,5.125048E3,3.403711E2,0E0,1.4325952E3,1.4474707E2,2.2840625E2,0E0,8.42775E2,5.4324036E1,5.9649902E1,1.3953238E2,5.3660156E1,0E0,6.0373267E2,0E0,4.047699E1,4.6887505E1,6.91254E1,3.0538574E1,1.9635881E2,0E0,0E0,0E0,0E0,0E0,0E0,0E0,0E0,0E0,0E0,0E0,0E0,0E0,0E0,0E0],"parents":[2147483647,0,0,1,1,3,3,4,4,5,5,7,7,8,8,9,9,11,11,12,12,13,13,14,14,15,15,17,17,19,19,20,20,21,21,22,22,23,23],"right_children":[2,4,-1,6,8,10,-1,12,14,16,-1,18,20,22,24,26,-1,28,-1,30,32,34,36,38,-1,-1,-1,-1,-1,-1,-1,-1,-1,-1,-1,-1,-1,-1,-1],"split_conditions":[3.460387E-1,1E0,5.6174334E-2,1E0,1E0,1E0,5.6031197E-2,1E0,-2.6365876E-1,1E0,5.7455298E-2,1E0,6E0,3.2310688E-1,1E0,1E0,5.8708187E-2,1E0,6.01888E-2,4.5251872E-2,1E0,1E0,-2.313452E-1,1E0,5.6502044E-2,-5.6028157E-2,-4.2711716E-2,-4.6297766E-2,4.8254177E-2,3.6500286E-2,6.546833E-2,-2.0026116E-2,7.130577E-2,1.2598368E-2,6.6341974E-2,2.497243E-2,5.7866354E-2,-1.0741952E-2,7.23524E-2],"split_indices":[27,26,0,21,14,22,0,24,29,17,0,21,10,30,21,24,0,20,0,27,20,23,6,20,0,0,0,0,0,0,0,0,0,0,0,0,0,0,0],"split_type":[0,0,0,0,0,0,0,0,0,0,0,0,0,0,0,0,0,0,0,0,0,0,0,0,0,0,0,0,0,0,0,0,0,0,0,0,0,0,0],"sum_hessian":[7.239193E4,4.278436E4,2.9607572E4,3.3696484E4,9.087876E3,3.3353105E4,3.4337814E2,4.134433E3,4.9534434E3,3.3287113E4,6.599227E1,3.544475E3,5.899581E2,4.288338E3,6.6510547E2,3.3244203E4,4.2908756E1,3.3271003E3,2.1737466E2,5.234677E2,6.6490395E1,2.5811758E2,4.0302202E3,3.7374066E2,2.913648E2,3.2452178E4,7.920279E2,3.149501E3,1.7759933E2,2.0002995E2,3.2343777E2,4.7734585E1,1.875581E1,1.6453964E2,9.357795E1,7.398613E1,3.9562341E3,2.7947516E2,9.4265526E1],"tree_param":{"num_deleted":"0","num_feature":"34","num_nodes":"39","size_leaf_vector":"1"}},{"base_weights":[3.8514327E-4,-7.69946E-1,5.5836886E-2,-1.0766652E0,3.561337E-1,-1.099236E0,5.5687375E-2,-4.499865E-1,1.034749E0,-1.1037166E0,5.6995E-2,-6.888366E-1,9.9736196E-1,3.2631588E-1,1.0775869E0,-1.1066862E0,5.819579E-2,-8.4669095E-1,1.0312175E0,7.323454E-2,1.1664072E0,-1.21937715E-1,5.5849213E-2,1.1223385E0,6.5435237E-1,-5.568123E-2,-4.208362E-2,-4.664148E-2,6.26162E-2,2.5726093E-2,6.9749065E-2,-2.340081E-2,5.5188894E-2,7.409829E-2,3.3299576E-2,-2.0417664E-2,6.282729E-2,3.517848E-2,5.7329457E-2,1.4248817E-2,6.235946E-2],"categories":[],"categories_nodes":[],"categories_segments":[],"categories_sizes":[],"default_left":[0,0,0,0,0,0,0,0,0,0,0,0,0,0,0,0,0,0,0,0,0,0,0,0,0,0,0,0,0,0,0,0,0,0,0,0,0,0,0,0,0],"id":31,"left_children":[1,3,-1,5,7,9,-1,11,13,15,-1,17,19,21,23,25,-1,27,29,31,33,35,-1,37,39,-1,-1,-1,-1,-1,-1,-1,-1,-1,-1,-1,-1,-1,-1,-1,-1],"loss_changes":[5.9669832E4,1.4180775E4,0E0,1.5965195E3,4.8087983E3,3.216953E2,0E0,1.389742E3,1.4448438E2,2.1592969E2,0E0,9.374824E2,8.889288E1,9.709378E1,8.449658E1,5.759375E1,0E0,5.725371E2,5.3866913E1,5.023965E1,7.503577E1,6.979968E1,0E0,4.05083E1,9.439975E1,0E0,0E0,0E0,0E0,0E0,0E0,0E0,0E0,0E0,0E0,0E0,0E0,0E0,0E0,0E0,0E0],"parents":[2147483647,0,0,1,1,3,3,4,4,5,5,7,7,8,8,9,9,11,11,12,12,13,13,14,14,15,15,17,17,18,18,19,19,20,20,21,21,23,23,24,24],"right_children":[2,4,-1,6,8,10,-1,12,14,16,-1,18,20,22,24,26,-1,28,30,32,34,36,-1,38,40,-1,-1,-1,-1,-1,-1,-1,-1,-1,-1,-1,-1,-1,-1,-1,-1],"split_conditions":[3.460387E-1,1E0,5.5836886E-2,1E0,1E0,1E0,5.5687375E-2,1E0,-2.313452E-1,1E0,5.6995E-2,1E0,-2.3135987E-1,1E0,9.503337E-2,1E0,5.819579E-2,1E0,4.5251872E-2,1E0,-2.084077E-1,1E0,5.5849213E-2,3.2310688E-1,1E0,-5.568123E-2,-4.208362E-2,-4.664148E-2,6.26162E-2,2.5726093E-2,6.9749065E-2,-2.340081E-2,5.5188894E-2,7.409829E-2,3.3299576E-2,-2.0417664E-2,6.282729E-2,3.517848E-2,5.7329457E-2,1.4248817E-2,6.235946E-2],"split_indices":[27,26,0,21,14,22,0,23,6,17,0,20,6,21,29,23,0,17,27,21,6,24,0,30,23,0,0,0,0,0,0,0,0,0,0,0,0,0,0,0,0],"split_type":[0,0,0,0,0,0,0,0,0,0,0,0,0,0,0,0,0,0,0,0,0,0,0,0,0,0,0,0,0,0,0,0,0,0,0,0,0,0,0,0,0],"sum_hessian":[6.9384664E4,4.1055156E4,2.8329508E4,3.2266516E4,8.788639E3,3.1937912E4,3.2860297E2,4.0171018E3,4.7715366E3,3.1874637E4,6.327582E1,3.448529E3,5.685728E2,2.7256693E2,4.4989697E3,3.1833463E4,4.117494E1,3.1591155E3,2.8941348E2,8.814421E1,4.804286E2,1.7448941E2,9.80775E1,4.0672578E3,4.317121E2,3.1018166E4,8.15297E2,3.035117E3,1.23998474E2,1.2056937E2,1.6884412E2,5.814945E1,2.9994764E1,2.934314E2,1.8699716E2,1.4505438E2,2.9435028E1,2.2428229E2,3.8429756E3,2.6689795E2,1.6481415E2],"tree_param":{"num_deleted":"0","num_feature":"34","num_nodes":"41","size_leaf_vector":"1"}},{"base_weights":[3.987505E-4,-7.6322836E-1,5.551971E-2,-1.0696887E0,3.5020006E-1,-1.0921081E0,5.5363487E-2,-4.402914E-1,1.0211867E0,-1.0965643E0,5.6557875E-2,-6.7504376E-1,9.668683E-1,7.830447E-1,1.1580747E0,-1.0995194E0,5.77053E-2,-8.3100605E-1,9.9384564E-1,4.742755E-1,1.2818862E0,1.5718451E-1,1.1758823E0,1.3752824E0,5.5517536E-2,-5.5341132E-2,-4.122572E-2,-4.6029117E-2,6.1550256E-2,2.4600543E-2,6.759055E-2,-5.3584506E-3,5.6353837E-2,1.9501982E-2,7.31869E-2,-8.715845E-3,5.9452828E-2,5.562597E-2,6.9468684E-2,7.5321645E-2,5.5561453E-2],"categories":[],"categories_nodes":[],"categories_segments":[],"categories_sizes":[],"default_left":[0,0,0,0,0,0,0,0,0,0,0,0,0,0,0,0,0,0,0,0,0,0,0,0,0,0,0,0,0,0,0,0,0,0,0,0,0,0,0,0,0],"id":32,"left_children":[1,3,-1,5,7,9,-1,11,13,15,-1,17,19,21,23,25,-1,27,29,31,33,35,37,39,-1,-1,-1,-1,-1,-1,-1,-1,-1,-1,-1,-1,-1,-1,-1,-1,-1],"loss_changes":[5.635791E4,1.3441264E4,0E0,1.5087812E3,4.5102876E3,3.0414844E2,0E0,1.2903939E3,1.4902148E2,2.0421484E2,0E0,8.7192224E2,8.6078674E1,4.133109E2,2.8725098E1,6.0296875E1,0E0,5.665647E2,5.079892E1,8.3432E1,5.4595398E1,2.224522E2,1.24296875E1,1.6386536E1,0E0,0E0,0E0,0E0,0E0,0E0,0E0,0E0,0E0,0E0,0E0,0E0,0E0,0E0,0E0,0E0,0E0],"parents":[2147483647,0,0,1,1,3,3,4,4,5,5,7,7,8,8,9,9,11,11,12,12,13,13,14,14,15,15,17,17,18,18,19,19,20,20,21,21,22,22,23,23],"right_children":[2,4,-1,6,8,10,-1,12,14,16,-1,18,20,22,24,26,-1,28,30,32,34,36,38,40,-1,-1,-1,-1,-1,-1,-1,-1,-1,-1,-1,-1,-1,-1,-1,-1,-1],"split_conditions":[3.460387E-1,1E0,5.551971E-2,1E0,1E0,1E0,5.5363487E-2,1E0,1E0,1E0,5.6557875E-2,1E0,4.5251872E-2,1E0,1E0,1E0,5.77053E-2,1E0,4.5251872E-2,1E0,3.2310688E-1,1E0,-1.2475853E0,1E0,5.5517536E-2,-5.5341132E-2,-4.122572E-2,-4.6029117E-2,6.1550256E-2,2.4600543E-2,6.759055E-2,-5.3584506E-3,5.6353837E-2,1.9501982E-2,7.31869E-2,-8.715845E-3,5.9452828E-2,5.562597E-2,6.9468684E-2,7.5321645E-2,5.5561453E-2],"split_indices":[27,26,0,21,14,22,0,23,24,17,0,20,27,23,25,23,0,22,27,21,30,20,15,21,0,0,0,0,0,0,0,0,0,0,0,0,0,0,0,0,0],"split_type":[0,0,0,0,0,0,0,0,0,0,0,0,0,0,0,0,0,0,0,0,0,0,0,0,0,0,0,0,0,0,0,0,0,0,0,0,0,0,0,0,0],"sum_hessian":[6.648739E4,3.9389496E4,2.7097893E4,3.0887934E4,8.501563E3,3.0573568E4,3.1436496E2,3.903354E3,4.5982095E3,3.0512918E4,6.0650784E1,3.3457178E3,5.576361E2,1.6808243E3,2.9173853E3,3.0473418E4,3.949958E1,3.0602327E3,2.8548505E2,2.1848976E2,3.3914636E2,6.4871155E2,1.0321128E3,5.205178E2,2.3968674E3,2.9682133E4,7.912854E2,2.9333577E3,1.2687501E2,1.1984614E2,1.6563892E2,1.1600284E2,1.02486916E2,5.7973686E1,2.8117267E2,4.916077E2,1.5710387E2,8.0068555E2,2.3142722E2,3.446376E2,1.758802E2],"tree_param":{"num_deleted":"0","num_feature":"34","num_nodes":"41","size_leaf_vector":"1"}},{"base_weights":[4.1894888E-4,-7.567819E-1,5.522142E-2,-1.063056E0,3.4455833E-1,-1.0853312E0,5.505812E-2,-4.3097332E-1,1.008287E0,-1.0897642E0,5.614214E-2,-6.673666E-1,9.5441043E-1,1.0922606E0,6.017087E-1,-1.0927058E0,5.7235014E-2,-7.8926325E-1,5.9417207E-2,2.2358695E-1,1.0763314E0,5.603261E-1,1.1210601E0,2.4895744E-1,1.2344165E0,-5.492573E-2,-3.5287917E-2,-4.4421133E-2,4.119147E-2,-1.1389601E-2,5.8242302E-2,6.685549E-2,3.591976E-2,9.911109E-3,6.33206E-2,1.9926181E-2,5.6641992E-2,-5.310497E-3,6.1333038E-2,6.925909E-2,5.4767963E-2],"categories":[],"categories_nodes":[],"categories_segments":[],"categories_sizes":[],"default_left":[0,0,0,0,0,0,0,0,0,0,0,0,0,0,0,0,0,0,0,0,0,0,0,0,0,0,0,0,0,0,0,0,0,0,0,0,0,0,0,0,0],"id":33,"left_children":[1,3,-1,5,7,9,-1,11,13,15,-1,17,19,21,23,25,-1,27,-1,29,31,33,35,37,39,-1,-1,-1,-1,-1,-1,-1,-1,-1,-1,-1,-1,-1,-1,-1,-1],"loss_changes":[5.3245938E4,1.2744543E4,0E0,1.4262891E3,4.2323457E3,2.8764844E2,0E0,1.2425271E3,1.5060205E2,1.9319922E2,0E0,7.338259E2,4.9046753E1,5.560547E1,1.6945425E2,6.477344E1,0E0,4.871223E2,0E0,3.440283E1,4.326526E1,4.8462543E1,2.9177734E1,1.7014435E2,4.185547E0,0E0,0E0,0E0,0E0,0E0,0E0,0E0,0E0,0E0,0E0,0E0,0E0,0E0,0E0,0E0,0E0],"parents":[2147483647,0,0,1,1,3,3,4,4,5,5,7,7,8,8,9,9,11,11,12,12,13,13,14,14,15,15,17,17,19,19,20,20,21,21,22,22,23,23,24,24],"right_children":[2,4,-1,6,8,10,-1,12,14,16,-1,18,20,22,24,26,-1,28,-1,30,32,34,36,38,40,-1,-1,-1,-1,-1,-1,-1,-1,-1,-1,-1,-1,-1,-1,-1,-1],"split_conditions":[3.460387E-1,1E0,5.522142E-2,1E0,1E0,1E0,5.505812E-2,1E0,-5.9790665E-1,1E0,5.614214E-2,1E0,-2.313452E-1,3.2310688E-1,1E0,1E0,5.7235014E-2,1E0,5.9417207E-2,1E0,-2.084077E-1,1E0,-2.313452E-1,1E0,1E0,-5.492573E-2,-3.5287917E-2,-4.4421133E-2,4.119147E-2,-1.1389601E-2,5.8242302E-2,6.685549E-2,3.591976E-2,9.911109E-3,6.33206E-2,1.9926181E-2,5.6641992E-2,-5.310497E-3,6.1333038E-2,6.925909E-2,5.4767963E-2],"split_indices":[27,26,0,21,14,22,0,24,29,17,0,21,6,30,23,20,0,20,0,23,6,23,6,24,21,0,0,0,0,0,0,0,0,0,0,0,0,0,0,0,0],"split_type":[0,0,0,0,0,0,0,0,0,0,0,0,0,0,0,0,0,0,0,0,0,0,0,0,0,0,0,0,0,0,0,0,0,0,0,0,0,0,0,0,0],"sum_hessian":[6.36926E4,3.7780566E4,2.5912033E4,2.9560154E4,8.220413E3,2.92595E4,3.0065518E2,3.7910835E3,4.4293296E3,2.9201383E4,5.8116436E1,3.2389307E3,5.5215283E2,3.6697097E3,7.5961975E2,2.91635E4,3.788211E1,3.0398274E3,1.9910333E2,7.9349106E1,4.728037E2,1.895282E2,3.4801816E3,4.8860376E2,2.7101596E2,2.8730375E4,4.331254E2,2.864209E3,1.756184E2,5.4142952E1,2.5206154E1,2.7194183E2,2.0086188E2,1.2612693E2,6.340127E1,5.6386658E1,3.423795E3,3.5906033E2,1.2954343E2,1.2573431E2,1.4528166E2],"tree_param":{"num_deleted":"0","num_feature":"34","num_nodes":"41","size_leaf_vector":"1"}},{"base_weights":[4.37695E-4,-7.504256E-1,5.49407E-2,-1.0567408E0,3.3877566E-1,-1.0788783E0,5.4769944E-2,-4.214473E-1,9.952152E-1,-1.0832895E0,5.5746164E-2,-6.5241903E-1,9.4551563E-1,7.471759E-1,1.1420249E0,-1.0862185E0,5.6783337E-2,-8.0491316E-1,9.2375815E-1,3.967047E-2,1.1121433E0,1.3792959E-1,1.1568815E0,1.3334197E0,5.4929405E-2,-5.4702915E-2,-3.857345E-2,-4.4714574E-2,6.1128475E-2,-7.8696414E-4,5.554117E-2,-2.1614647E-2,5.7445753E-2,2.3704464E-2,6.791406E-2,-8.873601E-3,5.815779E-2,5.500148E-2,6.7084484E-2,7.225134E-2,5.495524E-2],"categories":[],"categories_nodes":[],"categories_segments":[],"categories_sizes":[],"default_left":[0,0,0,0,0,0,0,0,0,0,0,0,0,0,0,0,0,0,0,0,0,0,0,0,0,0,0,0,0,0,0,0,0,0,0,0,0,0,0,0,0],"id":34,"left_children":[1,3,-1,5,7,9,-1,11,13,15,-1,17,19,21,23,25,-1,27,29,31,33,35,37,39,-1,-1,-1,-1,-1,-1,-1,-1,-1,-1,-1,-1,-1,-1,-1,-1,-1],"loss_changes":[5.0316027E4,1.2090434E4,0E0,1.3486816E3,3.970168E3,2.7212305E2,0E0,1.1646194E3,1.5460254E2,1.8283203E2,0E0,7.5892957E2,8.0451416E1,3.96768E2,2.0814453E1,6.801172E1,0E0,5.223838E2,4.90036E1,4.441732E1,7.009186E1,2.0732492E2,8.512329E0,1.1252502E1,0E0,0E0,0E0,0E0,0E0,0E0,0E0,0E0,0E0,0E0,0E0,0E0,0E0,0E0,0E0,0E0,0E0],"parents":[2147483647,0,0,1,1,3,3,4,4,5,5,7,7,8,8,9,9,11,11,12,12,13,13,14,14,15,15,17,17,18,18,19,19,20,20,21,21,22,22,23,23],"right_children":[2,4,-1,6,8,10,-1,12,14,16,-1,18,20,22,24,26,-1,28,30,32,34,36,38,40,-1,-1,-1,-1,-1,-1,-1,-1,-1,-1,-1,-1,-1,-1,-1,-1,-1],"split_conditions":[3.460387E-1,1E0,5.49407E-2,1E0,1E0,1E0,5.4769944E-2,1E0,1E0,1E0,5.5746164E-2,1E0,-2.3135987E-1,1E0,1E0,1E0,5.6783337E-2,1E0,-2.313452E-1,1E0,3.2310688E-1,1E0,-1.2475853E0,1E0,5.4929405E-2,-5.4702915E-2,-3.857345E-2,-4.4714574E-2,6.1128475E-2,-7.8696414E-4,5.554117E-2,-2.1614647E-2,5.7445753E-2,2.3704464E-2,6.791406E-2,-8.873601E-3,5.815779E-2,5.500148E-2,6.7084484E-2,7.225134E-2,5.495524E-2],"split_indices":[27,26,0,21,14,22,0,23,24,17,0,20,6,23,25,24,0,22,6,24,30,20,15,21,0,0,0,0,0,0,0,0,0,0,0,0,0,0,0,0,0],"split_type":[0,0,0,0,0,0,0,0,0,0,0,0,0,0,0,0,0,0,0,0,0,0,0,0,0,0,0,0,0,0,0,0,0,0,0,0,0,0,0,0,0],"sum_hessian":[6.100706E4,3.6236004E4,2.477105E4,2.8282242E4,7.953763E3,2.7994777E4,2.8746378E2,3.6857046E3,4.2680586E3,2.7939107E4,5.5671738E1,3.1534055E3,5.32299E2,1.5891812E3,2.6788777E3,2.7902785E4,3.632174E1,2.875675E3,2.777304E2,8.289443E1,4.4940457E2,6.395238E2,9.496573E2,4.9001865E2,2.1888591E3,2.7222262E4,6.8052234E2,2.7547935E3,1.2088167E2,4.6269096E1,2.3146132E2,5.857999E1,2.4314442E1,1.2591809E2,3.2348645E2,4.8969913E2,1.4982465E2,7.31562E2,2.1809532E2,3.2842075E2,1.6159789E2],"tree_param":{"num_deleted":"0","num_feature":"34","num_nodes":"41","size_leaf_vector":"1"}},{"base_weights":[4.5802526E-4,-7.442887E-1,5.4676365E-2,-1.0507065E0,3.3320206E-1,-1.0727121E0,5.449776E-2,-4.122083E-1,9.827826E-1,-1.0771024E0,5.5368435E-2,-6.443183E-1,9.2602104E-1,1.0866128E0,6.10777E-1,-1.0800198E0,5.634885E-2,-7.6412934E-1,5.891729E-2,1.0350177E0,1.01343594E-1,4.4845194E-1,1.1129806E0,2.75837E-1,1.2464142E0,-5.4433208E-2,-3.811481E-2,-4.427001E-2,2.7582739E-2,3.5187688E-2,6.2286496E-2,-1.9236129E-2,6.577072E-2,8.429447E-4,6.134629E-2,-5.858278E-2,5.5756755E-2,-5.9251846E-3,5.9960365E-2,6.8267405E-2,5.4692578E-2],"categories":[],"categories_nodes":[],"categories_segments":[],"categories_sizes":[],"default_left":[0,0,0,0,0,0,0,0,0,0,0,0,0,0,0,0,0,0,0,0,0,0,0,0,0,0,0,0,0,0,0,0,0,0,0,0,0,0,0,0,0],"id":35,"left_children":[1,3,-1,5,7,9,-1,11,13,15,-1,17,19,21,23,25,-1,27,-1,29,31,33,35,37,39,-1,-1,-1,-1,-1,-1,-1,-1,-1,-1,-1,-1,-1,-1,-1,-1],"loss_changes":[4.755975E4,1.14728125E4,0E0,1.2756074E3,3.7260967E3,2.5751172E2,0E0,1.113737E3,1.5815698E2,1.7306836E2,0E0,6.679374E2,4.754474E1,5.35708E1,1.9116144E2,7.2478516E1,0E0,4.5792493E2,0E0,3.1798157E1,3.7679295E1,4.3380157E1,1.6492432E1,2.151116E2,4.133789E0,0E0,0E0,0E0,0E0,0E0,0E0,0E0,0E0,0E0,0E0,0E0,0E0,0E0,0E0,0E0,0E0],"parents":[2147483647,0,0,1,1,3,3,4,4,5,5,7,7,8,8,9,9,11,11,12,12,13,13,14,14,15,15,17,17,19,19,20,20,21,21,22,22,23,23,24,24],"right_children":[2,4,-1,6,8,10,-1,12,14,16,-1,18,20,22,24,26,-1,28,-1,30,32,34,36,38,40,-1,-1,-1,-1,-1,-1,-1,-1,-1,-1,-1,-1,-1,-1,-1,-1],"split_conditions":[3.460387E-1,1E0,5.4676365E-2,1E0,1E0,1E0,5.449776E-2,1E0,-8.849318E-1,1E0,5.5368435E-2,1E0,6E0,3.2310688E-1,1E0,1E0,5.634885E-2,1E0,5.891729E-2,4.5251872E-2,1E0,1E0,1E0,1E0,1E0,-5.4433208E-2,-3.811481E-2,-4.427001E-2,2.7582739E-2,3.5187688E-2,6.2286496E-2,-1.9236129E-2,6.577072E-2,8.429447E-4,6.134629E-2,-5.858278E-2,5.5756755E-2,-5.9251846E-3,5.9960365E-2,6.8267405E-2,5.4692578E-2],"split_indices":[27,26,0,21,14,22,0,24,29,17,0,21,10,30,24,23,0,23,0,27,20,23,10,23,21,0,0,0,0,0,0,0,0,0,0,0,0,0,0,0,0],"split_type":[0,0,0,0,0,0,0,0,0,0,0,0,0,0,0,0,0,0,0,0,0,0,0,0,0,0,0,0,0,0,0,0,0,0,0,0,0,0,0,0,0],"sum_hessian":[5.842092E4,3.474693E4,2.367399E4,2.7053465E4,7.6934663E3,2.6778684E4,2.7478003E2,3.5826497E3,4.110817E3,2.672537E4,5.331541E1,3.0535444E3,5.291053E2,3.21231E3,8.9850665E2,2.669055E4,3.48175E1,2.865748E3,1.877964E2,4.671125E2,6.199279E1,1.2817535E2,3.0841348E3,5.8937683E2,3.0912985E2,2.598125E4,7.0930164E2,2.6242114E3,2.4153658E2,1.8329356E2,2.8381894E2,4.4756973E1,1.7235817E1,8.311647E1,4.505888E1,2.3942943E0,3.0817405E3,4.136096E2,1.7576721E2,1.6924289E2,1.3988696E2],"tree_param":{"num_deleted":"0","num_feature":"34","num_nodes":"41","size_leaf_vector":"1"}},{"base_weights":[4.760389E-4,-7.382534E-1,5.4427326E-2,-1.0449473E0,3.2756707E-1,-1.0668265E0,5.424046E-2,-4.0298852E-1,9.70144E-1,-1.0711972E0,5.5007577E-2,-6.3079166E-1,8.983459E-1,1.0780342E0,5.9235454E-1,-1.0741036E0,5.5930234E-2,-7.4752986E-1,5.8410253E-2,1.0055623E0,9.7983696E-2,4.318688E-1,1.1056E0,2.6528654E-1,1.2288662E0,-5.404834E-2,-3.1578436E-2,-4.244463E-2,3.8740396E-2,3.3845093E-2,6.0902394E-2,-1.8340236E-2,6.407753E-2,8.014914E-4,6.0330715E-2,-5.7041008E-2,5.5389293E-2,-5.628496E-3,5.91652E-2,6.6802695E-2,5.440695E-2],"categories":[],"categories_nodes":[],"categories_segments":[],"categories_sizes":[],"default_left":[0,0,0,0,0,0,0,0,0,0,0,0,0,0,0,0,0,0,0,0,0,0,0,0,0,0,0,0,0,0,0,0,0,0,0,0,0,0,0,0,0],"id":36,"left_children":[1,3,-1,5,7,9,-1,11,13,15,-1,17,19,21,23,25,-1,27,-1,29,31,33,35,37,39,-1,-1,-1,-1,-1,-1,-1,-1,-1,-1,-1,-1,-1,-1,-1,-1],"loss_changes":[4.496315E4,1.0891379E4,0E0,1.2067852E3,3.4957446E3,2.4374414E2,0E0,1.0337136E3,1.6084131E2,1.6387305E2,0E0,6.2386914E2,4.4489624E1,5.43916E1,1.8335165E2,7.684766E1,0E0,4.3061108E2,0E0,3.116803E1,3.4846897E1,4.111458E1,1.5766846E1,2.027417E2,3.0593262E0,0E0,0E0,0E0,0E0,0E0,0E0,0E0,0E0,0E0,0E0,0E0,0E0,0E0,0E0,0E0,0E0],"parents":[2147483647,0,0,1,1,3,3,4,4,5,5,7,7,8,8,9,9,11,11,12,12,13,13,14,14,15,15,17,17,19,19,20,20,21,21,22,22,23,23,24,24],"right_children":[2,4,-1,6,8,10,-1,12,14,16,-1,18,20,22,24,26,-1,28,-1,30,32,34,36,38,40,-1,-1,-1,-1,-1,-1,-1,-1,-1,-1,-1,-1,-1,-1,-1,-1],"split_conditions":[3.460387E-1,1E0,5.4427326E-2,1E0,1E0,1E0,5.424046E-2,1E0,-8.849318E-1,1E0,5.5007577E-2,1E0,6E0,3.2310688E-1,1E0,1E0,5.5930234E-2,1E0,5.8410253E-2,4.5251872E-2,1E0,1E0,1E0,1E0,1E0,-5.404834E-2,-3.1578436E-2,-4.244463E-2,3.8740396E-2,3.3845093E-2,6.0902394E-2,-1.8340236E-2,6.407753E-2,8.014914E-4,6.0330715E-2,-5.7041008E-2,5.5389293E-2,-5.628496E-3,5.91652E-2,6.6802695E-2,5.440695E-2],"split_indices":[27,26,0,21,14,22,0,24,29,17,0,21,10,30,24,20,0,20,0,27,20,23,10,23,21,0,0,0,0,0,0,0,0,0,0,0,0,0,0,0,0],"split_type":[0,0,0,0,0,0,0,0,0,0,0,0,0,0,0,0,0,0,0,0,0,0,0,0,0,0,0,0,0,0,0,0,0,0,0,0,0,0,0,0,0],"sum_hessian":[5.5936938E4,3.33171E4,2.2619836E4,2.587228E4,7.4448237E3,2.5609688E4,2.6259204E2,3.484086E3,3.960738E3,2.5558643E4,5.1045856E1,2.965483E3,5.186029E2,3.079447E3,8.812911E2,2.5525273E4,3.336835E1,2.7853257E3,1.8015732E2,4.5711188E2,6.1491013E1,1.2667796E2,2.952769E3,5.830902E2,2.9820087E2,2.5134025E4,3.9124707E2,2.6118608E3,1.7346477E2,1.8113242E2,2.7597946E2,4.464783E1,1.6843182E1,8.309696E1,4.3581E1,2.363855E0,2.9504053E3,4.136918E2,1.6939839E2,1.6445026E2,1.3375063E2],"tree_param":{"num_deleted":"0","num_feature":"34","num_nodes":"41","size_leaf_vector":"1"}},{"base_weights":[4.962457E-4,-7.323255E-1,5.419256E-2,-1.0394332E0,3.2197124E-1,-1.0611912E0,5.399701E-2,-3.938047E-1,9.576021E-1,-1.0655433E0,5.46623E-2,-6.1848396E-1,8.981901E-1,1.0696193E0,5.7436997E-1,-1.0684395E0,5.5526283E-2,-7.687294E-1,8.669383E-1,4.0070528E-1,1.2191502E0,4.158164E-1,1.0984277E0,2.5508E-1,1.211897E0,-5.390293E-2,-3.6116578E-2,-4.310611E-2,6.303001E-2,1.8064937E-2,6.1829705E-2,-6.4045535E-3,5.4780286E-2,1.5737234E-2,7.0433795E-2,-3.6598283E-3,5.4424565E-2,-5.5594277E-2,5.5032242E-2,-5.3467182E-3,5.8386154E-2,6.0915787E-2,-6.3678683E-3],"categories":[],"categories_nodes":[],"categories_segments":[],"categories_sizes":[],"default_left":[0,0,0,0,0,0,0,0,0,0,0,0,0,0,0,0,0,0,0,0,0,0,0,0,0,0,0,0,0,0,0,0,0,0,0,0,0,0,0,0,0,0,0],"id":37,"left_children":[1,3,-1,5,7,9,-1,11,13,15,-1,17,19,21,23,25,-1,27,29,31,33,35,37,39,41,-1,-1,-1,-1,-1,-1,-1,-1,-1,-1,-1,-1,-1,-1,-1,-1,-1,-1],"loss_changes":[4.2516113E4,1.0343434E4,0E0,1.1419258E3,3.2792812E3,2.3077344E2,0E0,9.847478E2,1.632622E2,1.5520508E2,0E0,6.453777E2,7.977353E1,5.5160156E1,1.7588876E2,8.048047E1,0E0,4.9839087E2,4.9238464E1,7.312331E1,5.184497E1,4.1601875E1,1.5080566E1,1.9109525E2,2.6358948E0,0E0,0E0,0E0,0E0,0E0,0E0,0E0,0E0,0E0,0E0,0E0,0E0,0E0,0E0,0E0,0E0,0E0,0E0],"parents":[2147483647,0,0,1,1,3,3,4,4,5,5,7,7,8,8,9,9,11,11,12,12,13,13,14,14,15,15,17,17,18,18,19,19,20,20,21,21,22,22,23,23,24,24],"right_children":[2,4,-1,6,8,10,-1,12,14,16,-1,18,20,22,24,26,-1,28,30,32,34,36,38,40,42,-1,-1,-1,-1,-1,-1,-1,-1,-1,-1,-1,-1,-1,-1,-1,-1,-1,-1],"split_conditions":[3.460387E-1,1E0,5.419256E-2,1E0,1E0,1E0,5.399701E-2,1E0,-8.849318E-1,1E0,5.46623E-2,1E0,4.5251872E-2,3.2310688E-1,1E0,1E0,5.5526283E-2,1E0,4.5251872E-2,1E0,3.2310688E-1,1E0,1E0,1E0,5.5E1,-5.390293E-2,-3.6116578E-2,-4.310611E-2,6.303001E-2,1.8064937E-2,6.1829705E-2,-6.4045535E-3,5.4780286E-2,1.5737234E-2,7.0433795E-2,-3.6598283E-3,5.4424565E-2,-5.5594277E-2,5.5032242E-2,-5.3467182E-3,5.8386154E-2,6.0915787E-2,-6.3678683E-3],"split_indices":[27,26,0,21,14,22,0,23,29,17,0,20,27,30,24,23,0,17,27,21,30,21,10,23,9,0,0,0,0,0,0,0,0,0,0,0,0,0,0,0,0,0,0],"split_type":[0,0,0,0,0,0,0,0,0,0,0,0,0,0,0,0,0,0,0,0,0,0,0,0,0,0,0,0,0,0,0,0,0,0,0,0,0,0,0,0,0,0,0],"sum_hessian":[5.355107E4,3.194357E4,2.16075E4,2.4737701E4,7.205869E3,2.4486814E4,2.5088728E2,3.3894417E3,3.8164275E3,2.4437953E4,4.8861446E1,2.887776E3,5.0166592E2,2.9518286E3,8.6459906E2,2.440598E4,3.1973152E1,2.622955E3,2.6482062E2,1.9761429E2,3.0405164E2,1.2522773E2,2.8266008E3,5.7701514E2,2.8758392E2,2.3743965E4,6.6201605E2,2.5081038E3,1.14851456E2,1.12674446E2,1.5214616E2,1.1268238E2,8.493191E1,5.313853E1,2.5091312E2,7.302911E1,5.219862E1,2.3309548E0,2.8242698E3,4.1376965E2,1.6324548E2,2.8630206E2,1.2818602E0],"tree_param":{"num_deleted":"0","num_feature":"34","num_nodes":"43","size_leaf_vector":"1"}},{"base_weights":[5.1741465E-4,-7.265894E-1,5.397116E-2,-1.0341432E0,3.1658867E-1,-1.0557843E0,5.3766467E-2,-3.8501984E-1,9.454226E-1,-1.0601188E0,5.433143E-2,-6.087503E-1,8.7370974E-1,1.0616592E0,5.5697006E-1,-1.0630054E0,5.5135883E-2,-7.2244877E-1,5.7892848E-2,1.6714318E-1,9.949386E-1,4.030335E-1,1.0914421E0,2.4520865E-1,1.196709E0,-5.3633552E-2,-3.4265753E-2,-4.2347327E-2,2.6214141E-2,-1.5059523E-2,5.294287E-2,6.2739305E-2,3.2073047E-2,-3.4784775E-3,5.4096907E-2,2.2617705E-2,5.5036183E-2,-6.775334E-3,5.5187475E-2,6.016473E-2,-6.1761187E-3],"categories":[],"categories_nodes":[],"categories_segments":[],"categories_sizes":[],"default_left":[0,0,0,0,0,0,0,0,0,0,0,0,0,0,0,0,0,0,0,0,0,0,0,0,0,0,0,0,0,0,0,0,0,0,0,0,0,0,0,0,0],"id":38,"left_children":[1,3,-1,5,7,9,-1,11,13,15,-1,17,19,21,23,25,-1,27,-1,29,31,33,35,37,39,-1,-1,-1,-1,-1,-1,-1,-1,-1,-1,-1,-1,-1,-1,-1,-1],"loss_changes":[4.0211305E4,9.824792E3,0E0,1.0807695E3,3.0768833E3,2.1853906E2,0E0,9.2889923E2,1.654602E2,1.4703516E2,0E0,5.6317505E2,4.248404E1,5.50625E1,1.6905582E2,8.444141E1,0E0,4.088114E2,0E0,3.1273632E1,3.8213226E1,3.9860405E1,1.5555908E1,1.8716139E2,2.565277E0,0E0,0E0,0E0,0E0,0E0,0E0,0E0,0E0,0E0,0E0,0E0,0E0,0E0,0E0,0E0,0E0],"parents":[2147483647,0,0,1,1,3,3,4,4,5,5,7,7,8,8,9,9,11,11,12,12,13,13,14,14,15,15,17,17,19,19,20,20,21,21,22,22,23,23,24,24],"right_children":[2,4,-1,6,8,10,-1,12,14,16,-1,18,20,22,24,26,-1,28,-1,30,32,34,36,38,40,-1,-1,-1,-1,-1,-1,-1,-1,-1,-1,-1,-1,-1,-1,-1,-1],"split_conditions":[3.460387E-1,1E0,5.397116E-2,1E0,1E0,1E0,5.3766467E-2,1E0,-8.849318E-1,1E0,5.433143E-2,1E0,-2.313452E-1,3.2310688E-1,1E0,1E0,5.5135883E-2,1E0,5.7892848E-2,1E0,-2.084077E-1,1E0,-2.313452E-1,1E0,5.5E1,-5.3633552E-2,-3.4265753E-2,-4.2347327E-2,2.6214141E-2,-1.5059523E-2,5.294287E-2,6.2739305E-2,3.2073047E-2,-3.4784775E-3,5.4096907E-2,2.2617705E-2,5.5036183E-2,-6.775334E-3,5.5187475E-2,6.016473E-2,-6.1761187E-3],"split_indices":[27,26,0,21,14,22,0,24,29,17,0,21,6,30,24,24,0,23,0,21,6,21,6,21,9,0,0,0,0,0,0,0,0,0,0,0,0,0,0,0,0],"split_type":[0,0,0,0,0,0,0,0,0,0,0,0,0,0,0,0,0,0,0,0,0,0,0,0,0,0,0,0,0,0,0,0,0,0,0,0,0,0,0,0,0],"sum_hessian":[5.1256566E4,3.0620693E4,2.0635873E4,2.3648545E4,6.9721475E3,2.3408893E4,2.3965302E2,3.2955703E3,3.6765771E3,2.3362133E4,4.676029E1,2.7986467E3,4.9692365E2,2.8284785E3,8.4809875E2,2.3331502E4,3.0630623E1,2.6299734E3,1.686735E2,7.312178E1,4.2380185E2,1.22998245E2,2.7054802E3,5.711472E2,2.7695154E2,2.2747521E4,5.83981E2,2.3914822E3,2.3849117E2,4.8376423E1,2.4745356E1,2.427802E2,1.8102167E2,7.304634E1,4.995191E1,3.944116E1,2.666039E3,3.9626694E2,1.7488026E2,2.7566504E2,1.286504E0],"tree_param":{"num_deleted":"0","num_feature":"34","num_nodes":"41","size_leaf_vector":"1"}},{"base_weights":[5.3969334E-4,-7.2092324E-1,5.376227E-2,-1.0290505E0,3.1121168E-1,-1.0505787E0,5.3547956E-2,-3.760455E-1,9.339109E-1,-1.0548962E0,5.401385E-2,-5.954163E-1,8.468053E-1,6.628863E-1,1.108012E0,-1.0577738E0,5.475801E-2,-7.0681226E-1,6.0318798E-2,9.541701E-1,6.921062E-2,8.72222E-2,1.1210241E0,1.2436793E0,5.37299E-2,-5.3291615E-2,-2.7781075E-2,-4.2183235E-2,2.6573239E-2,2.3835173E-2,5.501126E-2,-1.8863665E-2,6.1512973E-2,-1.1160326E-2,5.5425227E-2,5.3741645E-2,6.281121E-2,5.4089375E-2,6.688397E-2],"categories":[],"categories_nodes":[],"categories_segments":[],"categories_sizes":[],"default_left":[0,0,0,0,0,0,0,0,0,0,0,0,0,0,0,0,0,0,0,0,0,0,0,0,0,0,0,0,0,0,0,0,0,0,0,0,0,0,0],"id":39,"left_children":[1,3,-1,5,7,9,-1,11,13,15,-1,17,19,21,23,25,-1,27,-1,29,31,33,35,37,-1,-1,-1,-1,-1,-1,-1,-1,-1,-1,-1,-1,-1,-1,-1],"loss_changes":[3.8037203E4,9.335311E3,0E0,1.02307227E3,2.8886013E3,2.07E2,0E0,8.6131445E2,1.6635303E2,1.3932617E2,0E0,5.470685E2,4.071747E1,3.6583282E2,8.430908E0,8.965234E1,0E0,4.3487317E2,0E0,2.9403687E1,3.1746103E1,1.9553078E2,3.4743042E0,4.93573E0,0E0,0E0,0E0,0E0,0E0,0E0,0E0,0E0,0E0,0E0,0E0,0E0,0E0,0E0,0E0],"parents":[2147483647,0,0,1,1,3,3,4,4,5,5,7,7,8,8,9,9,11,11,12,12,13,13,14,14,15,15,17,17,19,19,20,20,21,21,22,22,23,23],"right_children":[2,4,-1,6,8,10,-1,12,14,16,-1,18,20,22,24,26,-1,28,-1,30,32,34,36,38,-1,-1,-1,-1,-1,-1,-1,-1,-1,-1,-1,-1,-1,-1,-1],"split_conditions":[3.460387E-1,1E0,5.376227E-2,1E0,1E0,1E0,5.3547956E-2,1E0,1E0,1E0,5.401385E-2,1E0,6E0,1E0,1E0,1E0,5.475801E-2,1E0,6.0318798E-2,3E0,1E0,1E0,-1.2475853E0,5E0,5.37299E-2,-5.3291615E-2,-2.7781075E-2,-4.2183235E-2,2.6573239E-2,2.3835173E-2,5.501126E-2,-1.8863665E-2,6.1512973E-2,-1.1160326E-2,5.5425227E-2,5.3741645E-2,6.281121E-2,5.4089375E-2,6.688397E-2],"split_indices":[27,26,0,21,14,22,0,24,24,17,0,22,10,23,25,20,0,23,0,10,20,21,15,10,0,0,0,0,0,0,0,0,0,0,0,0,0,0,0],"split_type":[0,0,0,0,0,0,0,0,0,0,0,0,0,0,0,0,0,0,0,0,0,0,0,0,0,0,0,0,0,0,0,0,0,0,0,0,0,0,0],"sum_hessian":[4.9055453E4,2.9351658E4,1.9703793E4,2.2603695E4,6.7479644E3,2.2374818E4,2.2887573E2,3.207892E3,3.5400723E3,2.2330078E4,4.4740414E1,2.720387E3,4.875052E2,1.3865016E3,2.1535708E3,2.2300738E4,2.933947E1,2.562564E3,1.5782297E2,4.281607E2,5.934449E1,6.1496704E2,7.7153455E2,4.1843256E2,1.7351382E3,2.1947412E4,3.533274E2,2.3078254E3,2.547386E2,1.01292076E2,3.2686862E2,4.334943E1,1.5995061E1,4.7221436E2,1.4275272E2,5.8173456E2,1.8979999E2,1.58303E2,2.6012958E2],"tree_param":{"num_deleted":"0","num_feature":"34","num_nodes":"39","size_leaf_vector":"1"}},{"base_weights":[5.651064E-4,-7.153814E-1,5.3565085E-2,-1.0241529E0,3.0597118E-1,-1.0455723E0,5.334065E-2,-3.6727315E-1,9.2279416E-1,-1.0498737E0,5.3708535E-2,-5.81639E-1,8.2518196E-1,1.0473632E0,5.222497E-1,-1.0527431E0,5.4391693E-2,-7.340138E-1,8.5822314E-1,3.2776648E-1,1.1505477E0,3.6769253E-1,1.0795422E0,2.0584394E-1,1.16181E0,-5.3201582E-2,-3.2870322E-2,-4.1428346E-2,6.285466E-2,1.16682155E-2,5.8101147E-2,-8.771222E-3,5.396802E-2,6.862632E-2,1.6046973E-2,-2.0195427E-3,5.8441427E-2,2.0683875E-2,5.448533E-2,-6.976114E-3,5.4937687E-2,4.172786E-2,5.9894353E-2],"categories":[],"categories_nodes":[],"categories_segments":[],"categories_sizes":[],"default_left":[0,0,0,0,0,0,0,0,0,0,0,0,0,0,0,0,0,0,0,0,0,0,0,0,0,0,0,0,0,0,0,0,0,0,0,0,0,0,0,0,0,0,0],"id":40,"left_children":[1,3,-1,5,7,9,-1,11,13,15,-1,17,19,21,23,25,-1,27,29,31,33,35,37,39,41,-1,-1,-1,-1,-1,-1,-1,-1,-1,-1,-1,-1,-1,-1,-1,-1,-1,-1],"loss_changes":[3.5986867E4,8.872466E3,0E0,9.686289E2,2.7126877E3,1.9610742E2,0E0,7.98948E2,1.6953955E2,1.3204492E2,0E0,5.8165326E2,7.672122E1,5.6450684E1,1.638053E2,9.441797E1,0E0,4.5200415E2,4.792624E1,7.19637E1,5.252246E1,3.895613E1,1.6341797E1,1.677765E2,2.1654663E0,0E0,0E0,0E0,0E0,0E0,0E0,0E0,0E0,0E0,0E0,0E0,